digraph Tree {
node [shape=box, style="rounded", color="black", fontname="helvetica"] ;
edge [fontname="helvetica"] ;
0 [label="temp_1 <= 63.5\nsquared_error = 174.6\nsamples = 1043\nvalue = 61.5"] ;
1 [label="temp_1 <= 50.5\nsquared_error = 59.1\nsamples = 608\nvalue = 52.8"] ;
0 -> 1 [labeldistance=2.5, labelangle=45, headlabel="True"] ;
2 [label="temp_1 <= 43.5\nsquared_error = 32.1\nsamples = 243\nvalue = 46.2"] ;
1 -> 2 ;
3 [label="temp_1 <= 37.5\nsquared_error = 19.2\nsamples = 74\nvalue = 40.9"] ;
2 -> 3 ;
4 [label="ws_1 <= 7.7\nsquared_error = 8.5\nsamples = 11\nvalue = 36.7"] ;
3 -> 4 ;
5 [label="temp_2 <= 33.0\nsquared_error = 3.9\nsamples = 9\nvalue = 37.7"] ;
4 -> 5 ;
6 [label="squared_error = 0.0\nsamples = 1\nvalue = 34.0"] ;
5 -> 6 ;
7 [label="fall <= 0.5\nsquared_error = 2.5\nsamples = 8\nvalue = 38.2"] ;
5 -> 7 ;
8 [label="average <= 45.8\nsquared_error = 1.7\nsamples = 7\nvalue = 37.9"] ;
7 -> 8 ;
9 [label="average <= 45.4\nsquared_error = 0.2\nsamples = 2\nvalue = 39.4"] ;
8 -> 9 ;
10 [label="squared_error = 0.0\nsamples = 1\nvalue = 39.0"] ;
9 -> 10 ;
11 [label="squared_error = 0.0\nsamples = 1\nvalue = 40.0"] ;
9 -> 11 ;
12 [label="average <= 47.0\nsquared_error = 0.9\nsamples = 5\nvalue = 37.3"] ;
8 -> 12 ;
13 [label="squared_error = 0.0\nsamples = 2\nvalue = 36.0"] ;
12 -> 13 ;
14 [label="squared_error = 0.0\nsamples = 3\nvalue = 38.0"] ;
12 -> 14 ;
15 [label="squared_error = 0.0\nsamples = 1\nvalue = 42.0"] ;
7 -> 15 ;
16 [label="temp_2 <= 37.5\nsquared_error = 3.0\nsamples = 2\nvalue = 32.0"] ;
4 -> 16 ;
17 [label="squared_error = 0.0\nsamples = 1\nvalue = 29.0"] ;
16 -> 17 ;
18 [label="squared_error = 0.0\nsamples = 1\nvalue = 33.0"] ;
16 -> 18 ;
19 [label="temp_2 <= 48.5\nsquared_error = 16.4\nsamples = 63\nvalue = 42.0"] ;
3 -> 19 ;
20 [label="average <= 45.2\nsquared_error = 13.0\nsamples = 55\nvalue = 41.4"] ;
19 -> 20 ;
21 [label="temp_2 <= 44.5\nsquared_error = 7.3\nsamples = 12\nvalue = 44.4"] ;
20 -> 21 ;
22 [label="temp_1 <= 41.5\nsquared_error = 2.8\nsamples = 6\nvalue = 42.9"] ;
21 -> 22 ;
23 [label="ws_1 <= 2.7\nsquared_error = 0.9\nsamples = 3\nvalue = 40.7"] ;
22 -> 23 ;
24 [label="squared_error = 0.0\nsamples = 1\nvalue = 42.0"] ;
23 -> 24 ;
25 [label="squared_error = 0.0\nsamples = 2\nvalue = 40.0"] ;
23 -> 25 ;
26 [label="squared_error = 0.0\nsamples = 3\nvalue = 44.0"] ;
22 -> 26 ;
27 [label="Tues <= 0.5\nsquared_error = 5.6\nsamples = 6\nvalue = 46.7"] ;
21 -> 27 ;
28 [label="ws_1 <= 4.4\nsquared_error = 1.0\nsamples = 4\nvalue = 48.0"] ;
27 -> 28 ;
29 [label="squared_error = 0.0\nsamples = 2\nvalue = 49.0"] ;
28 -> 29 ;
30 [label="squared_error = 0.0\nsamples = 2\nvalue = 47.0"] ;
28 -> 30 ;
31 [label="temp_2 <= 45.5\nsquared_error = 4.0\nsamples = 2\nvalue = 44.0"] ;
27 -> 31 ;
32 [label="squared_error = 0.0\nsamples = 1\nvalue = 42.0"] ;
31 -> 32 ;
33 [label="squared_error = 0.0\nsamples = 1\nvalue = 46.0"] ;
31 -> 33 ;
34 [label="snwd_1 <= 1.5\nsquared_error = 11.7\nsamples = 43\nvalue = 40.7"] ;
20 -> 34 ;
35 [label="prcp_1 <= 0.1\nsquared_error = 10.5\nsamples = 42\nvalue = 40.5"] ;
34 -> 35 ;
36 [label="temp_1 <= 40.5\nsquared_error = 7.3\nsamples = 34\nvalue = 39.9"] ;
35 -> 36 ;
37 [label="Tues <= 0.5\nsquared_error = 6.0\nsamples = 16\nvalue = 39.0"] ;
36 -> 37 ;
38 [label="temp_2 <= 39.5\nsquared_error = 4.4\nsamples = 14\nvalue = 38.6"] ;
37 -> 38 ;
39 [label="average <= 48.5\nsquared_error = 4.8\nsamples = 6\nvalue = 37.2"] ;
38 -> 39 ;
40 [label="temp_1 <= 38.5\nsquared_error = 2.2\nsamples = 5\nvalue = 36.6"] ;
39 -> 40 ;
41 [label="temp_2 <= 38.5\nsquared_error = 0.6\nsamples = 3\nvalue = 35.6"] ;
40 -> 41 ;
42 [label="squared_error = 0.0\nsamples = 2\nvalue = 36.0"] ;
41 -> 42 ;
43 [label="squared_error = 0.0\nsamples = 1\nvalue = 34.0"] ;
41 -> 43 ;
44 [label="Thurs <= 0.5\nsquared_error = 0.2\nsamples = 2\nvalue = 38.3"] ;
40 -> 44 ;
45 [label="squared_error = 0.0\nsamples = 1\nvalue = 39.0"] ;
44 -> 45 ;
46 [label="squared_error = 0.0\nsamples = 1\nvalue = 38.0"] ;
44 -> 46 ;
47 [label="squared_error = 0.0\nsamples = 1\nvalue = 42.0"] ;
39 -> 47 ;
48 [label="temp_2 <= 41.0\nsquared_error = 1.9\nsamples = 8\nvalue = 39.5"] ;
38 -> 48 ;
49 [label="temp_1 <= 39.5\nsquared_error = 1.0\nsamples = 3\nvalue = 40.8"] ;
48 -> 49 ;
50 [label="squared_error = 0.0\nsamples = 1\nvalue = 42.0"] ;
49 -> 50 ;
51 [label="squared_error = 0.0\nsamples = 2\nvalue = 40.0"] ;
49 -> 51 ;
52 [label="temp_1 <= 38.5\nsquared_error = 0.9\nsamples = 5\nvalue = 38.8"] ;
48 -> 52 ;
53 [label="average <= 45.9\nsquared_error = 1.0\nsamples = 2\nvalue = 40.0"] ;
52 -> 53 ;
54 [label="squared_error = 0.0\nsamples = 1\nvalue = 39.0"] ;
53 -> 54 ;
55 [label="squared_error = 0.0\nsamples = 1\nvalue = 41.0"] ;
53 -> 55 ;
56 [label="temp_2 <= 45.5\nsquared_error = 0.2\nsamples = 3\nvalue = 38.3"] ;
52 -> 56 ;
57 [label="squared_error = 0.0\nsamples = 2\nvalue = 38.0"] ;
56 -> 57 ;
58 [label="squared_error = 0.0\nsamples = 1\nvalue = 39.0"] ;
56 -> 58 ;
59 [label="average <= 46.9\nsquared_error = 5.6\nsamples = 2\nvalue = 42.3"] ;
37 -> 59 ;
60 [label="squared_error = 0.0\nsamples = 1\nvalue = 39.0"] ;
59 -> 60 ;
61 [label="squared_error = 0.0\nsamples = 1\nvalue = 44.0"] ;
59 -> 61 ;
62 [label="temp_2 <= 36.5\nsquared_error = 7.1\nsamples = 18\nvalue = 40.8"] ;
36 -> 62 ;
63 [label="squared_error = 0.0\nsamples = 1\nvalue = 50.0"] ;
62 -> 63 ;
64 [label="Tues <= 0.5\nsquared_error = 3.6\nsamples = 17\nvalue = 40.4"] ;
62 -> 64 ;
65 [label="ws_1 <= 5.6\nsquared_error = 1.5\nsamples = 13\nvalue = 41.4"] ;
64 -> 65 ;
66 [label="ws_1 <= 2.8\nsquared_error = 1.1\nsamples = 9\nvalue = 40.9"] ;
65 -> 66 ;
67 [label="temp_2 <= 43.0\nsquared_error = 0.2\nsamples = 3\nvalue = 42.2"] ;
66 -> 67 ;
68 [label="squared_error = 0.0\nsamples = 2\nvalue = 42.0"] ;
67 -> 68 ;
69 [label="squared_error = 0.0\nsamples = 1\nvalue = 43.0"] ;
67 -> 69 ;
70 [label="ws_1 <= 4.1\nsquared_error = 0.4\nsamples = 6\nvalue = 40.3"] ;
66 -> 70 ;
71 [label="temp_1 <= 42.0\nsquared_error = 0.2\nsamples = 4\nvalue = 39.8"] ;
70 -> 71 ;
72 [label="squared_error = 0.0\nsamples = 3\nvalue = 40.0"] ;
71 -> 72 ;
73 [label="squared_error = 0.0\nsamples = 1\nvalue = 39.0"] ;
71 -> 73 ;
74 [label="squared_error = 0.0\nsamples = 2\nvalue = 41.0"] ;
70 -> 74 ;
75 [label="Mon <= 0.5\nsquared_error = 0.2\nsamples = 4\nvalue = 42.8"] ;
65 -> 75 ;
76 [label="squared_error = 0.0\nsamples = 3\nvalue = 43.0"] ;
75 -> 76 ;
77 [label="squared_error = 0.0\nsamples = 1\nvalue = 42.0"] ;
75 -> 77 ;
78 [label="average <= 47.7\nsquared_error = 0.1\nsamples = 4\nvalue = 37.8"] ;
64 -> 78 ;
79 [label="squared_error = 0.0\nsamples = 3\nvalue = 38.0"] ;
78 -> 79 ;
80 [label="squared_error = 0.0\nsamples = 1\nvalue = 37.0"] ;
78 -> 80 ;
81 [label="ws_1 <= 11.5\nsquared_error = 15.5\nsamples = 8\nvalue = 42.8"] ;
35 -> 81 ;
82 [label="Sat <= 0.5\nsquared_error = 6.5\nsamples = 5\nvalue = 45.6"] ;
81 -> 82 ;
83 [label="ws_1 <= 6.0\nsquared_error = 1.6\nsamples = 4\nvalue = 46.5"] ;
82 -> 83 ;
84 [label="squared_error = 0.0\nsamples = 1\nvalue = 49.0"] ;
83 -> 84 ;
85 [label="Sun <= 0.5\nsquared_error = 0.4\nsamples = 3\nvalue = 46.0"] ;
83 -> 85 ;
86 [label="temp_1 <= 38.5\nsquared_error = 0.2\nsamples = 2\nvalue = 46.2"] ;
85 -> 86 ;
87 [label="squared_error = 0.0\nsamples = 1\nvalue = 46.0"] ;
86 -> 87 ;
88 [label="squared_error = 0.0\nsamples = 1\nvalue = 47.0"] ;
86 -> 88 ;
89 [label="squared_error = 0.0\nsamples = 1\nvalue = 45.0"] ;
85 -> 89 ;
90 [label="squared_error = 0.0\nsamples = 1\nvalue = 40.0"] ;
82 -> 90 ;
91 [label="Sun <= 0.5\nsquared_error = 7.2\nsamples = 3\nvalue = 39.7"] ;
81 -> 91 ;
92 [label="prcp_1 <= 0.3\nsquared_error = 1.0\nsamples = 2\nvalue = 40.8"] ;
91 -> 92 ;
93 [label="squared_error = 0.0\nsamples = 1\nvalue = 42.0"] ;
92 -> 93 ;
94 [label="squared_error = 0.0\nsamples = 1\nvalue = 40.0"] ;
92 -> 94 ;
95 [label="squared_error = 0.0\nsamples = 1\nvalue = 34.0"] ;
91 -> 95 ;
96 [label="squared_error = 0.0\nsamples = 1\nvalue = 50.0"] ;
34 -> 96 ;
97 [label="average <= 46.1\nsquared_error = 20.6\nsamples = 8\nvalue = 46.4"] ;
19 -> 97 ;
98 [label="prcp_1 <= 0.0\nsquared_error = 4.0\nsamples = 2\nvalue = 53.0"] ;
97 -> 98 ;
99 [label="squared_error = 0.0\nsamples = 1\nvalue = 55.0"] ;
98 -> 99 ;
100 [label="squared_error = 0.0\nsamples = 1\nvalue = 51.0"] ;
98 -> 100 ;
101 [label="average <= 46.9\nsquared_error = 11.2\nsamples = 6\nvalue = 44.8"] ;
97 -> 101 ;
102 [label="squared_error = 0.0\nsamples = 1\nvalue = 37.0"] ;
101 -> 102 ;
103 [label="ws_1 <= 5.8\nsquared_error = 3.0\nsamples = 5\nvalue = 45.9"] ;
101 -> 103 ;
104 [label="squared_error = 0.0\nsamples = 1\nvalue = 50.0"] ;
103 -> 104 ;
105 [label="average <= 47.3\nsquared_error = 0.1\nsamples = 4\nvalue = 45.2"] ;
103 -> 105 ;
106 [label="squared_error = 0.0\nsamples = 1\nvalue = 46.0"] ;
105 -> 106 ;
107 [label="squared_error = 0.0\nsamples = 3\nvalue = 45.0"] ;
105 -> 107 ;
108 [label="average <= 48.9\nsquared_error = 20.7\nsamples = 169\nvalue = 48.4"] ;
2 -> 108 ;
109 [label="prcp_1 <= 0.1\nsquared_error = 17.9\nsamples = 86\nvalue = 46.9"] ;
108 -> 109 ;
110 [label="temp_1 <= 46.5\nsquared_error = 17.8\nsamples = 49\nvalue = 45.8"] ;
109 -> 110 ;
111 [label="fall <= 0.5\nsquared_error = 15.7\nsamples = 24\nvalue = 44.2"] ;
110 -> 111 ;
112 [label="Sat <= 0.5\nsquared_error = 9.7\nsamples = 23\nvalue = 45.0"] ;
111 -> 112 ;
113 [label="ws_1 <= 5.0\nsquared_error = 7.1\nsamples = 18\nvalue = 45.8"] ;
112 -> 113 ;
114 [label="average <= 45.2\nsquared_error = 4.9\nsamples = 11\nvalue = 47.4"] ;
113 -> 114 ;
115 [label="squared_error = 0.0\nsamples = 1\nvalue = 42.0"] ;
114 -> 115 ;
116 [label="prcp_1 <= 0.0\nsquared_error = 3.3\nsamples = 10\nvalue = 47.8"] ;
114 -> 116 ;
117 [label="temp_2 <= 48.0\nsquared_error = 2.1\nsamples = 6\nvalue = 48.9"] ;
116 -> 117 ;
118 [label="temp_1 <= 44.5\nsquared_error = 0.6\nsamples = 3\nvalue = 49.8"] ;
117 -> 118 ;
119 [label="squared_error = 0.0\nsamples = 1\nvalue = 49.0"] ;
118 -> 119 ;
120 [label="average <= 47.2\nsquared_error = 0.2\nsamples = 2\nvalue = 50.3"] ;
118 -> 120 ;
121 [label="squared_error = 0.0\nsamples = 1\nvalue = 51.0"] ;
120 -> 121 ;
122 [label="squared_error = 0.0\nsamples = 1\nvalue = 50.0"] ;
120 -> 122 ;
123 [label="temp_2 <= 53.5\nsquared_error = 0.9\nsamples = 3\nvalue = 47.3"] ;
117 -> 123 ;
124 [label="squared_error = 0.0\nsamples = 2\nvalue = 48.0"] ;
123 -> 124 ;
125 [label="squared_error = 0.0\nsamples = 1\nvalue = 46.0"] ;
123 -> 125 ;
126 [label="Mon <= 0.5\nsquared_error = 2.0\nsamples = 4\nvalue = 46.6"] ;
116 -> 126 ;
127 [label="Tues <= 0.5\nsquared_error = 1.5\nsamples = 3\nvalue = 47.2"] ;
126 -> 127 ;
128 [label="Fri <= 0.5\nsquared_error = 0.2\nsamples = 2\nvalue = 48.3"] ;
127 -> 128 ;
129 [label="squared_error = 0.0\nsamples = 1\nvalue = 48.0"] ;
128 -> 129 ;
130 [label="squared_error = 0.0\nsamples = 1\nvalue = 49.0"] ;
128 -> 130 ;
131 [label="squared_error = 0.0\nsamples = 1\nvalue = 46.0"] ;
127 -> 131 ;
132 [label="squared_error = 0.0\nsamples = 1\nvalue = 45.0"] ;
126 -> 132 ;
133 [label="ws_1 <= 7.4\nsquared_error = 2.3\nsamples = 7\nvalue = 43.8"] ;
113 -> 133 ;
134 [label="average <= 45.2\nsquared_error = 1.0\nsamples = 3\nvalue = 42.2"] ;
133 -> 134 ;
135 [label="squared_error = 0.0\nsamples = 1\nvalue = 41.0"] ;
134 -> 135 ;
136 [label="squared_error = 0.0\nsamples = 2\nvalue = 43.0"] ;
134 -> 136 ;
137 [label="Mon <= 0.5\nsquared_error = 0.7\nsamples = 4\nvalue = 44.8"] ;
133 -> 137 ;
138 [label="temp_2 <= 48.5\nsquared_error = 0.2\nsamples = 3\nvalue = 45.5"] ;
137 -> 138 ;
139 [label="squared_error = 0.0\nsamples = 2\nvalue = 46.0"] ;
138 -> 139 ;
140 [label="squared_error = 0.0\nsamples = 1\nvalue = 45.0"] ;
138 -> 140 ;
141 [label="squared_error = 0.0\nsamples = 1\nvalue = 44.0"] ;
137 -> 141 ;
142 [label="average <= 45.6\nsquared_error = 6.4\nsamples = 5\nvalue = 41.8"] ;
112 -> 142 ;
143 [label="squared_error = 0.0\nsamples = 1\nvalue = 38.0"] ;
142 -> 143 ;
144 [label="ws_1 <= 5.4\nsquared_error = 2.3\nsamples = 4\nvalue = 43.0"] ;
142 -> 144 ;
145 [label="squared_error = 0.0\nsamples = 2\nvalue = 42.0"] ;
144 -> 145 ;
146 [label="ws_1 <= 8.1\nsquared_error = 1.0\nsamples = 2\nvalue = 45.0"] ;
144 -> 146 ;
147 [label="squared_error = 0.0\nsamples = 1\nvalue = 46.0"] ;
146 -> 147 ;
148 [label="squared_error = 0.0\nsamples = 1\nvalue = 44.0"] ;
146 -> 148 ;
149 [label="squared_error = 0.0\nsamples = 1\nvalue = 35.0"] ;
111 -> 149 ;
150 [label="ws_1 <= 5.5\nsquared_error = 14.8\nsamples = 25\nvalue = 47.4"] ;
110 -> 150 ;
151 [label="average <= 45.2\nsquared_error = 11.3\nsamples = 9\nvalue = 51.5"] ;
150 -> 151 ;
152 [label="squared_error = 0.0\nsamples = 1\nvalue = 44.0"] ;
151 -> 152 ;
153 [label="temp_2 <= 45.5\nsquared_error = 6.2\nsamples = 8\nvalue = 52.3"] ;
151 -> 153 ;
154 [label="squared_error = 0.0\nsamples = 2\nvalue = 49.0"] ;
153 -> 154 ;
155 [label="temp_1 <= 49.5\nsquared_error = 2.2\nsamples = 6\nvalue = 53.7"] ;
153 -> 155 ;
156 [label="temp_1 <= 48.0\nsquared_error = 1.7\nsamples = 4\nvalue = 52.8"] ;
155 -> 156 ;
157 [label="squared_error = 0.0\nsamples = 1\nvalue = 55.0"] ;
156 -> 157 ;
158 [label="squared_error = 0.0\nsamples = 3\nvalue = 52.0"] ;
156 -> 158 ;
159 [label="squared_error = 0.0\nsamples = 2\nvalue = 55.0"] ;
155 -> 159 ;
160 [label="prcp_1 <= 0.0\nsquared_error = 7.3\nsamples = 16\nvalue = 45.9"] ;
150 -> 160 ;
161 [label="prcp_1 <= 0.0\nsquared_error = 3.0\nsamples = 9\nvalue = 47.6"] ;
160 -> 161 ;
162 [label="temp_2 <= 45.5\nsquared_error = 2.5\nsamples = 8\nvalue = 47.2"] ;
161 -> 162 ;
163 [label="average <= 47.5\nsquared_error = 1.9\nsamples = 5\nvalue = 48.1"] ;
162 -> 163 ;
164 [label="temp_1 <= 48.5\nsquared_error = 0.2\nsamples = 3\nvalue = 47.2"] ;
163 -> 164 ;
165 [label="squared_error = 0.0\nsamples = 1\nvalue = 48.0"] ;
164 -> 165 ;
166 [label="squared_error = 0.0\nsamples = 2\nvalue = 47.0"] ;
164 -> 166 ;
167 [label="Sat <= 0.5\nsquared_error = 0.9\nsamples = 2\nvalue = 49.7"] ;
163 -> 167 ;
168 [label="squared_error = 0.0\nsamples = 1\nvalue = 49.0"] ;
167 -> 168 ;
169 [label="squared_error = 0.0\nsamples = 1\nvalue = 51.0"] ;
167 -> 169 ;
170 [label="temp_1 <= 48.0\nsquared_error = 0.2\nsamples = 3\nvalue = 45.8"] ;
162 -> 170 ;
171 [label="squared_error = 0.0\nsamples = 2\nvalue = 46.0"] ;
170 -> 171 ;
172 [label="squared_error = 0.0\nsamples = 1\nvalue = 45.0"] ;
170 -> 172 ;
173 [label="squared_error = 0.0\nsamples = 1\nvalue = 50.0"] ;
161 -> 173 ;
174 [label="ws_1 <= 10.7\nsquared_error = 5.5\nsamples = 7\nvalue = 44.1"] ;
160 -> 174 ;
175 [label="temp_1 <= 49.5\nsquared_error = 2.4\nsamples = 3\nvalue = 45.8"] ;
174 -> 175 ;
176 [label="prcp_1 <= 0.1\nsquared_error = 1.0\nsamples = 2\nvalue = 46.8"] ;
175 -> 176 ;
177 [label="squared_error = 0.0\nsamples = 1\nvalue = 46.0"] ;
176 -> 177 ;
178 [label="squared_error = 0.0\nsamples = 1\nvalue = 48.0"] ;
176 -> 178 ;
179 [label="squared_error = 0.0\nsamples = 1\nvalue = 44.0"] ;
175 -> 179 ;
180 [label="temp_1 <= 48.5\nsquared_error = 0.8\nsamples = 4\nvalue = 41.8"] ;
174 -> 180 ;
181 [label="squared_error = 0.0\nsamples = 1\nvalue = 40.0"] ;
180 -> 181 ;
182 [label="Sat <= 0.5\nsquared_error = 0.2\nsamples = 3\nvalue = 42.2"] ;
180 -> 182 ;
183 [label="squared_error = 0.0\nsamples = 2\nvalue = 42.0"] ;
182 -> 183 ;
184 [label="squared_error = 0.0\nsamples = 1\nvalue = 43.0"] ;
182 -> 184 ;
185 [label="prcp_1 <= 1.3\nsquared_error = 14.9\nsamples = 37\nvalue = 48.2"] ;
109 -> 185 ;
186 [label="prcp_1 <= 0.1\nsquared_error = 11.9\nsamples = 36\nvalue = 48.5"] ;
185 -> 186 ;
187 [label="average <= 45.6\nsquared_error = 3.2\nsamples = 3\nvalue = 52.7"] ;
186 -> 187 ;
188 [label="squared_error = 0.0\nsamples = 1\nvalue = 49.0"] ;
187 -> 188 ;
189 [label="Thurs <= 0.5\nsquared_error = 0.6\nsamples = 2\nvalue = 53.4"] ;
187 -> 189 ;
190 [label="squared_error = 0.0\nsamples = 1\nvalue = 53.0"] ;
189 -> 190 ;
191 [label="squared_error = 0.0\nsamples = 1\nvalue = 55.0"] ;
189 -> 191 ;
192 [label="temp_1 <= 48.5\nsquared_error = 10.8\nsamples = 33\nvalue = 48.1"] ;
186 -> 192 ;
193 [label="Sat <= 0.5\nsquared_error = 8.7\nsamples = 25\nvalue = 47.2"] ;
192 -> 193 ;
194 [label="prcp_1 <= 0.7\nsquared_error = 7.5\nsamples = 24\nvalue = 47.4"] ;
193 -> 194 ;
195 [label="average <= 45.8\nsquared_error = 8.1\nsamples = 21\nvalue = 46.8"] ;
194 -> 195 ;
196 [label="temp_1 <= 45.5\nsquared_error = 3.0\nsamples = 7\nvalue = 44.7"] ;
195 -> 196 ;
197 [label="Thurs <= 0.5\nsquared_error = 1.5\nsamples = 4\nvalue = 43.0"] ;
196 -> 197 ;
198 [label="prcp_1 <= 0.2\nsquared_error = 0.2\nsamples = 3\nvalue = 42.3"] ;
197 -> 198 ;
199 [label="squared_error = 0.0\nsamples = 1\nvalue = 43.0"] ;
198 -> 199 ;
200 [label="squared_error = 0.0\nsamples = 2\nvalue = 42.0"] ;
198 -> 200 ;
201 [label="squared_error = 0.0\nsamples = 1\nvalue = 45.0"] ;
197 -> 201 ;
202 [label="temp_2 <= 41.5\nsquared_error = 0.8\nsamples = 3\nvalue = 45.8"] ;
196 -> 202 ;
203 [label="squared_error = 0.0\nsamples = 1\nvalue = 45.0"] ;
202 -> 203 ;
204 [label="Mon <= 0.5\nsquared_error = 0.2\nsamples = 2\nvalue = 46.7"] ;
202 -> 204 ;
205 [label="squared_error = 0.0\nsamples = 1\nvalue = 47.0"] ;
204 -> 205 ;
206 [label="squared_error = 0.0\nsamples = 1\nvalue = 46.0"] ;
204 -> 206 ;
207 [label="ws_1 <= 6.8\nsquared_error = 7.4\nsamples = 14\nvalue = 47.9"] ;
195 -> 207 ;
208 [label="prcp_1 <= 0.5\nsquared_error = 1.5\nsamples = 6\nvalue = 49.4"] ;
207 -> 208 ;
209 [label="average <= 48.0\nsquared_error = 0.3\nsamples = 5\nvalue = 49.9"] ;
208 -> 209 ;
210 [label="temp_2 <= 40.5\nsquared_error = 0.2\nsamples = 4\nvalue = 49.8"] ;
209 -> 210 ;
211 [label="squared_error = 0.0\nsamples = 1\nvalue = 49.0"] ;
210 -> 211 ;
212 [label="ws_1 <= 2.8\nsquared_error = 0.1\nsamples = 3\nvalue = 49.9"] ;
210 -> 212 ;
213 [label="squared_error = 0.0\nsamples = 1\nvalue = 49.0"] ;
212 -> 213 ;
214 [label="squared_error = 0.0\nsamples = 2\nvalue = 50.0"] ;
212 -> 214 ;
215 [label="squared_error = 0.0\nsamples = 1\nvalue = 51.0"] ;
209 -> 215 ;
216 [label="squared_error = 0.0\nsamples = 1\nvalue = 47.0"] ;
208 -> 216 ;
217 [label="average <= 48.0\nsquared_error = 8.6\nsamples = 8\nvalue = 46.2"] ;
207 -> 217 ;
218 [label="Tues <= 0.5\nsquared_error = 2.7\nsamples = 4\nvalue = 43.8"] ;
217 -> 218 ;
219 [label="snwd_1 <= 1.0\nsquared_error = 0.2\nsamples = 3\nvalue = 44.7"] ;
218 -> 219 ;
220 [label="squared_error = 0.0\nsamples = 2\nvalue = 45.0"] ;
219 -> 220 ;
221 [label="squared_error = 0.0\nsamples = 1\nvalue = 44.0"] ;
219 -> 221 ;
222 [label="squared_error = 0.0\nsamples = 1\nvalue = 41.0"] ;
218 -> 222 ;
223 [label="temp_2 <= 48.5\nsquared_error = 5.8\nsamples = 4\nvalue = 47.8"] ;
217 -> 223 ;
224 [label="Fri <= 0.5\nsquared_error = 0.2\nsamples = 2\nvalue = 44.5"] ;
223 -> 224 ;
225 [label="squared_error = 0.0\nsamples = 1\nvalue = 45.0"] ;
224 -> 225 ;
226 [label="squared_error = 0.0\nsamples = 1\nvalue = 44.0"] ;
224 -> 226 ;
227 [label="temp_2 <= 50.0\nsquared_error = 0.2\nsamples = 2\nvalue = 49.5"] ;
223 -> 227 ;
228 [label="squared_error = 0.0\nsamples = 1\nvalue = 49.0"] ;
227 -> 228 ;
229 [label="squared_error = 0.0\nsamples = 1\nvalue = 50.0"] ;
227 -> 229 ;
230 [label="temp_2 <= 41.0\nsquared_error = 0.7\nsamples = 3\nvalue = 49.3"] ;
194 -> 230 ;
231 [label="squared_error = 0.0\nsamples = 1\nvalue = 50.0"] ;
230 -> 231 ;
232 [label="temp_2 <= 49.5\nsquared_error = 0.2\nsamples = 2\nvalue = 48.5"] ;
230 -> 232 ;
233 [label="squared_error = 0.0\nsamples = 1\nvalue = 48.0"] ;
232 -> 233 ;
234 [label="squared_error = 0.0\nsamples = 1\nvalue = 49.0"] ;
232 -> 234 ;
235 [label="squared_error = 0.0\nsamples = 1\nvalue = 40.0"] ;
193 -> 235 ;
236 [label="average <= 47.9\nsquared_error = 9.0\nsamples = 8\nvalue = 50.5"] ;
192 -> 236 ;
237 [label="temp_2 <= 46.0\nsquared_error = 5.3\nsamples = 5\nvalue = 53.1"] ;
236 -> 237 ;
238 [label="squared_error = 0.0\nsamples = 1\nvalue = 48.0"] ;
237 -> 238 ;
239 [label="average <= 46.6\nsquared_error = 1.0\nsamples = 4\nvalue = 54.0"] ;
237 -> 239 ;
240 [label="squared_error = 0.0\nsamples = 2\nvalue = 55.0"] ;
239 -> 240 ;
241 [label="squared_error = 0.0\nsamples = 2\nvalue = 53.0"] ;
239 -> 241 ;
242 [label="Sat <= 0.5\nsquared_error = 0.6\nsamples = 3\nvalue = 48.1"] ;
236 -> 242 ;
243 [label="temp_1 <= 49.5\nsquared_error = 0.2\nsamples = 2\nvalue = 47.6"] ;
242 -> 243 ;
244 [label="squared_error = 0.0\nsamples = 1\nvalue = 47.0"] ;
243 -> 244 ;
245 [label="squared_error = 0.0\nsamples = 1\nvalue = 48.0"] ;
243 -> 245 ;
246 [label="squared_error = 0.0\nsamples = 1\nvalue = 49.0"] ;
242 -> 246 ;
247 [label="squared_error = 0.0\nsamples = 1\nvalue = 38.0"] ;
185 -> 247 ;
248 [label="temp_1 <= 45.5\nsquared_error = 17.6\nsamples = 83\nvalue = 50.3"] ;
108 -> 248 ;
249 [label="prcp_1 <= 0.3\nsquared_error = 15.6\nsamples = 11\nvalue = 45.3"] ;
248 -> 249 ;
250 [label="Wed <= 0.5\nsquared_error = 10.5\nsamples = 10\nvalue = 44.6"] ;
249 -> 250 ;
251 [label="Sun <= 0.5\nsquared_error = 6.2\nsamples = 9\nvalue = 45.2"] ;
250 -> 251 ;
252 [label="Fri <= 0.5\nsquared_error = 3.1\nsamples = 8\nvalue = 46.1"] ;
251 -> 252 ;
253 [label="Tues <= 0.5\nsquared_error = 1.4\nsamples = 6\nvalue = 45.4"] ;
252 -> 253 ;
254 [label="ws_1 <= 13.5\nsquared_error = 1.0\nsamples = 3\nvalue = 46.0"] ;
253 -> 254 ;
255 [label="squared_error = 0.0\nsamples = 2\nvalue = 47.0"] ;
254 -> 255 ;
256 [label="squared_error = 0.0\nsamples = 1\nvalue = 45.0"] ;
254 -> 256 ;
257 [label="average <= 52.4\nsquared_error = 0.9\nsamples = 3\nvalue = 44.7"] ;
253 -> 257 ;
258 [label="squared_error = 0.0\nsamples = 2\nvalue = 44.0"] ;
257 -> 258 ;
259 [label="squared_error = 0.0\nsamples = 1\nvalue = 46.0"] ;
257 -> 259 ;
260 [label="temp_1 <= 44.5\nsquared_error = 3.6\nsamples = 2\nvalue = 47.7"] ;
252 -> 260 ;
261 [label="squared_error = 0.0\nsamples = 1\nvalue = 49.0"] ;
260 -> 261 ;
262 [label="squared_error = 0.0\nsamples = 1\nvalue = 45.0"] ;
260 -> 262 ;
263 [label="squared_error = 0.0\nsamples = 1\nvalue = 41.0"] ;
251 -> 263 ;
264 [label="squared_error = 0.0\nsamples = 1\nvalue = 37.0"] ;
250 -> 264 ;
265 [label="squared_error = 0.0\nsamples = 1\nvalue = 54.0"] ;
249 -> 265 ;
266 [label="prcp_1 <= 0.3\nsquared_error = 14.2\nsamples = 72\nvalue = 50.9"] ;
248 -> 266 ;
267 [label="average <= 52.4\nsquared_error = 14.3\nsamples = 57\nvalue = 51.5"] ;
266 -> 267 ;
268 [label="prcp_1 <= 0.2\nsquared_error = 9.4\nsamples = 38\nvalue = 50.6"] ;
267 -> 268 ;
269 [label="average <= 49.0\nsquared_error = 8.4\nsamples = 35\nvalue = 50.1"] ;
268 -> 269 ;
270 [label="squared_error = 0.0\nsamples = 1\nvalue = 58.0"] ;
269 -> 270 ;
271 [label="temp_1 <= 48.5\nsquared_error = 7.2\nsamples = 34\nvalue = 50.0"] ;
269 -> 271 ;
272 [label="prcp_1 <= 0.0\nsquared_error = 6.5\nsamples = 17\nvalue = 49.0"] ;
271 -> 272 ;
273 [label="Fri <= 0.5\nsquared_error = 5.4\nsamples = 14\nvalue = 49.5"] ;
272 -> 273 ;
274 [label="ws_1 <= 3.4\nsquared_error = 4.5\nsamples = 10\nvalue = 50.2"] ;
273 -> 274 ;
275 [label="prcp_1 <= 0.0\nsquared_error = 0.2\nsamples = 2\nvalue = 47.5"] ;
274 -> 275 ;
276 [label="squared_error = 0.0\nsamples = 1\nvalue = 47.0"] ;
275 -> 276 ;
277 [label="squared_error = 0.0\nsamples = 1\nvalue = 48.0"] ;
275 -> 277 ;
278 [label="ws_1 <= 4.0\nsquared_error = 3.7\nsamples = 8\nvalue = 50.7"] ;
274 -> 278 ;
279 [label="squared_error = 0.0\nsamples = 1\nvalue = 54.0"] ;
278 -> 279 ;
280 [label="winter <= 0.5\nsquared_error = 1.6\nsamples = 7\nvalue = 50.0"] ;
278 -> 280 ;
281 [label="average <= 49.4\nsquared_error = 0.9\nsamples = 3\nvalue = 48.7"] ;
280 -> 281 ;
282 [label="squared_error = 0.0\nsamples = 1\nvalue = 50.0"] ;
281 -> 282 ;
283 [label="squared_error = 0.0\nsamples = 2\nvalue = 48.0"] ;
281 -> 283 ;
284 [label="average <= 50.3\nsquared_error = 0.6\nsamples = 4\nvalue = 50.7"] ;
280 -> 284 ;
285 [label="Tues <= 0.5\nsquared_error = 0.2\nsamples = 2\nvalue = 51.3"] ;
284 -> 285 ;
286 [label="squared_error = 0.0\nsamples = 1\nvalue = 52.0"] ;
285 -> 286 ;
287 [label="squared_error = 0.0\nsamples = 1\nvalue = 51.0"] ;
285 -> 287 ;
288 [label="squared_error = 0.0\nsamples = 2\nvalue = 50.0"] ;
284 -> 288 ;
289 [label="average <= 50.1\nsquared_error = 3.5\nsamples = 4\nvalue = 47.8"] ;
273 -> 289 ;
290 [label="average <= 49.4\nsquared_error = 0.6\nsamples = 3\nvalue = 48.6"] ;
289 -> 290 ;
291 [label="squared_error = 0.0\nsamples = 2\nvalue = 49.0"] ;
290 -> 291 ;
292 [label="squared_error = 0.0\nsamples = 1\nvalue = 47.0"] ;
290 -> 292 ;
293 [label="squared_error = 0.0\nsamples = 1\nvalue = 44.0"] ;
289 -> 293 ;
294 [label="average <= 50.0\nsquared_error = 2.7\nsamples = 3\nvalue = 46.0"] ;
272 -> 294 ;
295 [label="Tues <= 0.5\nsquared_error = 1.0\nsamples = 2\nvalue = 45.0"] ;
294 -> 295 ;
296 [label="squared_error = 0.0\nsamples = 1\nvalue = 44.0"] ;
295 -> 296 ;
297 [label="squared_error = 0.0\nsamples = 1\nvalue = 46.0"] ;
295 -> 297 ;
298 [label="squared_error = 0.0\nsamples = 1\nvalue = 48.0"] ;
294 -> 298 ;
299 [label="ws_1 <= 5.7\nsquared_error = 6.2\nsamples = 17\nvalue = 50.8"] ;
271 -> 299 ;
300 [label="ws_1 <= 4.6\nsquared_error = 4.5\nsamples = 4\nvalue = 53.2"] ;
299 -> 300 ;
301 [label="prcp_1 <= 0.1\nsquared_error = 0.7\nsamples = 3\nvalue = 51.8"] ;
300 -> 301 ;
302 [label="squared_error = 0.0\nsamples = 1\nvalue = 51.0"] ;
301 -> 302 ;
303 [label="prcp_1 <= 0.2\nsquared_error = 0.2\nsamples = 2\nvalue = 52.5"] ;
301 -> 303 ;
304 [label="squared_error = 0.0\nsamples = 1\nvalue = 52.0"] ;
303 -> 304 ;
305 [label="squared_error = 0.0\nsamples = 1\nvalue = 53.0"] ;
303 -> 305 ;
306 [label="squared_error = 0.0\nsamples = 1\nvalue = 56.0"] ;
300 -> 306 ;
307 [label="average <= 50.7\nsquared_error = 4.4\nsamples = 13\nvalue = 50.1"] ;
299 -> 307 ;
308 [label="Sun <= 0.5\nsquared_error = 3.2\nsamples = 10\nvalue = 50.8"] ;
307 -> 308 ;
309 [label="ws_1 <= 13.1\nsquared_error = 1.5\nsamples = 8\nvalue = 50.2"] ;
308 -> 309 ;
310 [label="temp_2 <= 48.5\nsquared_error = 0.7\nsamples = 6\nvalue = 50.7"] ;
309 -> 310 ;
311 [label="squared_error = 0.0\nsamples = 1\nvalue = 52.0"] ;
310 -> 311 ;
312 [label="temp_1 <= 49.5\nsquared_error = 0.5\nsamples = 5\nvalue = 50.5"] ;
310 -> 312 ;
313 [label="prcp_1 <= 0.1\nsquared_error = 0.2\nsamples = 2\nvalue = 49.7"] ;
312 -> 313 ;
314 [label="squared_error = 0.0\nsamples = 1\nvalue = 50.0"] ;
313 -> 314 ;
315 [label="squared_error = 0.0\nsamples = 1\nvalue = 49.0"] ;
313 -> 315 ;
316 [label="squared_error = 0.0\nsamples = 3\nvalue = 51.0"] ;
312 -> 316 ;
317 [label="ws_1 <= 15.8\nsquared_error = 2.0\nsamples = 2\nvalue = 49.0"] ;
309 -> 317 ;
318 [label="squared_error = 0.0\nsamples = 1\nvalue = 47.0"] ;
317 -> 318 ;
319 [label="squared_error = 0.0\nsamples = 1\nvalue = 50.0"] ;
317 -> 319 ;
320 [label="average <= 49.8\nsquared_error = 1.0\nsamples = 2\nvalue = 54.0"] ;
308 -> 320 ;
321 [label="squared_error = 0.0\nsamples = 1\nvalue = 55.0"] ;
320 -> 321 ;
322 [label="squared_error = 0.0\nsamples = 1\nvalue = 53.0"] ;
320 -> 322 ;
323 [label="temp_2 <= 47.5\nsquared_error = 0.2\nsamples = 3\nvalue = 47.5"] ;
307 -> 323 ;
324 [label="squared_error = 0.0\nsamples = 1\nvalue = 48.0"] ;
323 -> 324 ;
325 [label="squared_error = 0.0\nsamples = 2\nvalue = 47.0"] ;
323 -> 325 ;
326 [label="temp_2 <= 51.5\nsquared_error = 1.9\nsamples = 3\nvalue = 54.3"] ;
268 -> 326 ;
327 [label="ws_1 <= 7.6\nsquared_error = 0.8\nsamples = 2\nvalue = 53.5"] ;
326 -> 327 ;
328 [label="squared_error = 0.0\nsamples = 1\nvalue = 54.0"] ;
327 -> 328 ;
329 [label="squared_error = 0.0\nsamples = 1\nvalue = 52.0"] ;
327 -> 329 ;
330 [label="squared_error = 0.0\nsamples = 1\nvalue = 56.0"] ;
326 -> 330 ;
331 [label="average <= 52.6\nsquared_error = 18.9\nsamples = 19\nvalue = 53.2"] ;
267 -> 331 ;
332 [label="squared_error = 0.0\nsamples = 1\nvalue = 60.0"] ;
331 -> 332 ;
333 [label="ws_1 <= 14.1\nsquared_error = 16.6\nsamples = 18\nvalue = 52.7"] ;
331 -> 333 ;
334 [label="Fri <= 0.5\nsquared_error = 6.9\nsamples = 15\nvalue = 51.8"] ;
333 -> 334 ;
335 [label="temp_2 <= 50.5\nsquared_error = 6.8\nsamples = 13\nvalue = 50.8"] ;
334 -> 335 ;
336 [label="average <= 52.8\nsquared_error = 7.1\nsamples = 6\nvalue = 49.3"] ;
335 -> 336 ;
337 [label="squared_error = 0.0\nsamples = 1\nvalue = 55.0"] ;
336 -> 337 ;
338 [label="ws_1 <= 6.3\nsquared_error = 1.9\nsamples = 5\nvalue = 48.3"] ;
336 -> 338 ;
339 [label="Sat <= 0.5\nsquared_error = 0.2\nsamples = 3\nvalue = 49.2"] ;
338 -> 339 ;
340 [label="squared_error = 0.0\nsamples = 2\nvalue = 49.0"] ;
339 -> 340 ;
341 [label="squared_error = 0.0\nsamples = 1\nvalue = 50.0"] ;
339 -> 341 ;
342 [label="temp_1 <= 48.0\nsquared_error = 0.2\nsamples = 2\nvalue = 46.5"] ;
338 -> 342 ;
343 [label="squared_error = 0.0\nsamples = 1\nvalue = 46.0"] ;
342 -> 343 ;
344 [label="squared_error = 0.0\nsamples = 1\nvalue = 47.0"] ;
342 -> 344 ;
345 [label="temp_2 <= 55.5\nsquared_error = 3.3\nsamples = 7\nvalue = 52.0"] ;
335 -> 345 ;
346 [label="Sat <= 0.5\nsquared_error = 1.5\nsamples = 6\nvalue = 51.5"] ;
345 -> 346 ;
347 [label="prcp_1 <= 0.0\nsquared_error = 0.7\nsamples = 5\nvalue = 51.1"] ;
346 -> 347 ;
348 [label="squared_error = 0.0\nsamples = 1\nvalue = 53.0"] ;
347 -> 348 ;
349 [label="Tues <= 0.5\nsquared_error = 0.1\nsamples = 4\nvalue = 50.8"] ;
347 -> 349 ;
350 [label="squared_error = 0.0\nsamples = 3\nvalue = 51.0"] ;
349 -> 350 ;
351 [label="squared_error = 0.0\nsamples = 1\nvalue = 50.0"] ;
349 -> 351 ;
352 [label="squared_error = 0.0\nsamples = 1\nvalue = 54.0"] ;
346 -> 352 ;
353 [label="squared_error = 0.0\nsamples = 1\nvalue = 56.0"] ;
345 -> 353 ;
354 [label="squared_error = 0.0\nsamples = 2\nvalue = 54.0"] ;
334 -> 354 ;
355 [label="ws_1 <= 15.3\nsquared_error = 41.0\nsamples = 3\nvalue = 56.8"] ;
333 -> 355 ;
356 [label="squared_error = 0.0\nsamples = 1\nvalue = 62.0"] ;
355 -> 356 ;
357 [label="Tues <= 0.5\nsquared_error = 1.0\nsamples = 2\nvalue = 49.0"] ;
355 -> 357 ;
358 [label="squared_error = 0.0\nsamples = 1\nvalue = 48.0"] ;
357 -> 358 ;
359 [label="squared_error = 0.0\nsamples = 1\nvalue = 50.0"] ;
357 -> 359 ;
360 [label="Tues <= 0.5\nsquared_error = 9.0\nsamples = 15\nvalue = 49.1"] ;
266 -> 360 ;
361 [label="average <= 57.1\nsquared_error = 6.3\nsamples = 13\nvalue = 48.3"] ;
360 -> 361 ;
362 [label="temp_2 <= 52.5\nsquared_error = 5.0\nsamples = 11\nvalue = 47.7"] ;
361 -> 362 ;
363 [label="average <= 54.9\nsquared_error = 3.3\nsamples = 9\nvalue = 47.3"] ;
362 -> 363 ;
364 [label="Sun <= 0.5\nsquared_error = 3.3\nsamples = 6\nvalue = 46.6"] ;
363 -> 364 ;
365 [label="average <= 49.6\nsquared_error = 0.2\nsamples = 5\nvalue = 47.2"] ;
364 -> 365 ;
366 [label="squared_error = 0.0\nsamples = 2\nvalue = 48.0"] ;
365 -> 366 ;
367 [label="squared_error = 0.0\nsamples = 3\nvalue = 47.0"] ;
365 -> 367 ;
368 [label="squared_error = 0.0\nsamples = 1\nvalue = 41.0"] ;
364 -> 368 ;
369 [label="ws_1 <= 8.2\nsquared_error = 0.2\nsamples = 3\nvalue = 48.8"] ;
363 -> 369 ;
370 [label="squared_error = 0.0\nsamples = 1\nvalue = 48.0"] ;
369 -> 370 ;
371 [label="squared_error = 0.0\nsamples = 2\nvalue = 49.0"] ;
369 -> 371 ;
372 [label="winter <= 0.5\nsquared_error = 8.0\nsamples = 2\nvalue = 50.0"] ;
362 -> 372 ;
373 [label="squared_error = 0.0\nsamples = 1\nvalue = 48.0"] ;
372 -> 373 ;
374 [label="squared_error = 0.0\nsamples = 1\nvalue = 54.0"] ;
372 -> 374 ;
375 [label="average <= 58.1\nsquared_error = 0.9\nsamples = 2\nvalue = 51.7"] ;
361 -> 375 ;
376 [label="squared_error = 0.0\nsamples = 1\nvalue = 51.0"] ;
375 -> 376 ;
377 [label="squared_error = 0.0\nsamples = 1\nvalue = 53.0"] ;
375 -> 377 ;
378 [label="prcp_1 <= 0.5\nsquared_error = 0.8\nsamples = 2\nvalue = 53.5"] ;
360 -> 378 ;
379 [label="squared_error = 0.0\nsamples = 1\nvalue = 52.0"] ;
378 -> 379 ;
380 [label="squared_error = 0.0\nsamples = 1\nvalue = 54.0"] ;
378 -> 380 ;
381 [label="temp_1 <= 57.5\nsquared_error = 31.1\nsamples = 365\nvalue = 57.0"] ;
1 -> 381 ;
382 [label="average <= 50.9\nsquared_error = 20.7\nsamples = 206\nvalue = 54.4"] ;
381 -> 382 ;
383 [label="temp_2 <= 49.5\nsquared_error = 18.1\nsamples = 68\nvalue = 52.0"] ;
382 -> 383 ;
384 [label="Tues <= 0.5\nsquared_error = 12.7\nsamples = 18\nvalue = 49.7"] ;
383 -> 384 ;
385 [label="Fri <= 0.5\nsquared_error = 11.0\nsamples = 16\nvalue = 50.8"] ;
384 -> 385 ;
386 [label="Mon <= 0.5\nsquared_error = 8.3\nsamples = 14\nvalue = 50.3"] ;
385 -> 386 ;
387 [label="ws_1 <= 7.0\nsquared_error = 2.8\nsamples = 9\nvalue = 49.4"] ;
386 -> 387 ;
388 [label="ws_1 <= 3.2\nsquared_error = 2.2\nsamples = 4\nvalue = 50.5"] ;
387 -> 388 ;
389 [label="squared_error = 0.0\nsamples = 1\nvalue = 49.0"] ;
388 -> 389 ;
390 [label="squared_error = 0.0\nsamples = 3\nvalue = 52.0"] ;
388 -> 390 ;
391 [label="Sun <= 0.5\nsquared_error = 1.7\nsamples = 5\nvalue = 48.6"] ;
387 -> 391 ;
392 [label="prcp_1 <= 0.1\nsquared_error = 0.1\nsamples = 4\nvalue = 48.1"] ;
391 -> 392 ;
393 [label="squared_error = 0.0\nsamples = 1\nvalue = 49.0"] ;
392 -> 393 ;
394 [label="squared_error = 0.0\nsamples = 3\nvalue = 48.0"] ;
392 -> 394 ;
395 [label="squared_error = 0.0\nsamples = 1\nvalue = 52.0"] ;
391 -> 395 ;
396 [label="temp_2 <= 48.5\nsquared_error = 16.2\nsamples = 5\nvalue = 52.6"] ;
386 -> 396 ;
397 [label="average <= 47.6\nsquared_error = 6.9\nsamples = 3\nvalue = 55.3"] ;
396 -> 397 ;
398 [label="temp_2 <= 44.5\nsquared_error = 0.2\nsamples = 2\nvalue = 53.5"] ;
397 -> 398 ;
399 [label="squared_error = 0.0\nsamples = 1\nvalue = 54.0"] ;
398 -> 399 ;
400 [label="squared_error = 0.0\nsamples = 1\nvalue = 53.0"] ;
398 -> 400 ;
401 [label="squared_error = 0.0\nsamples = 1\nvalue = 59.0"] ;
397 -> 401 ;
402 [label="temp_1 <= 52.5\nsquared_error = 2.2\nsamples = 2\nvalue = 48.5"] ;
396 -> 402 ;
403 [label="squared_error = 0.0\nsamples = 1\nvalue = 47.0"] ;
402 -> 403 ;
404 [label="squared_error = 0.0\nsamples = 1\nvalue = 50.0"] ;
402 -> 404 ;
405 [label="prcp_1 <= 0.4\nsquared_error = 12.2\nsamples = 2\nvalue = 55.5"] ;
385 -> 405 ;
406 [label="squared_error = 0.0\nsamples = 1\nvalue = 59.0"] ;
405 -> 406 ;
407 [label="squared_error = 0.0\nsamples = 1\nvalue = 52.0"] ;
405 -> 407 ;
408 [label="average <= 48.9\nsquared_error = 1.0\nsamples = 2\nvalue = 46.0"] ;
384 -> 408 ;
409 [label="squared_error = 0.0\nsamples = 1\nvalue = 47.0"] ;
408 -> 409 ;
410 [label="squared_error = 0.0\nsamples = 1\nvalue = 45.0"] ;
408 -> 410 ;
411 [label="average <= 48.4\nsquared_error = 17.5\nsamples = 50\nvalue = 52.7"] ;
383 -> 411 ;
412 [label="prcp_1 <= 0.8\nsquared_error = 20.6\nsamples = 19\nvalue = 51.2"] ;
411 -> 412 ;
413 [label="ws_1 <= 7.3\nsquared_error = 14.9\nsamples = 15\nvalue = 52.4"] ;
412 -> 413 ;
414 [label="Sun <= 0.5\nsquared_error = 16.4\nsamples = 5\nvalue = 49.1"] ;
413 -> 414 ;
415 [label="fall <= 0.5\nsquared_error = 24.0\nsamples = 3\nvalue = 52.0"] ;
414 -> 415 ;
416 [label="average <= 46.6\nsquared_error = 9.0\nsamples = 2\nvalue = 49.0"] ;
415 -> 416 ;
417 [label="squared_error = 0.0\nsamples = 1\nvalue = 46.0"] ;
416 -> 417 ;
418 [label="squared_error = 0.0\nsamples = 1\nvalue = 52.0"] ;
416 -> 418 ;
419 [label="squared_error = 0.0\nsamples = 1\nvalue = 58.0"] ;
415 -> 419 ;
420 [label="squared_error = 0.0\nsamples = 2\nvalue = 47.0"] ;
414 -> 420 ;
421 [label="average <= 46.8\nsquared_error = 8.7\nsamples = 10\nvalue = 53.6"] ;
413 -> 421 ;
422 [label="temp_1 <= 54.5\nsquared_error = 3.8\nsamples = 8\nvalue = 52.5"] ;
421 -> 422 ;
423 [label="ws_1 <= 13.6\nsquared_error = 2.7\nsamples = 6\nvalue = 51.4"] ;
422 -> 423 ;
424 [label="squared_error = 0.0\nsamples = 2\nvalue = 50.0"] ;
423 -> 424 ;
425 [label="temp_1 <= 53.5\nsquared_error = 2.5\nsamples = 4\nvalue = 52.2"] ;
423 -> 425 ;
426 [label="average <= 45.9\nsquared_error = 0.2\nsamples = 2\nvalue = 50.7"] ;
425 -> 426 ;
427 [label="squared_error = 0.0\nsamples = 1\nvalue = 51.0"] ;
426 -> 427 ;
428 [label="squared_error = 0.0\nsamples = 1\nvalue = 50.0"] ;
426 -> 428 ;
429 [label="prcp_1 <= 0.4\nsquared_error = 0.2\nsamples = 2\nvalue = 53.7"] ;
425 -> 429 ;
430 [label="squared_error = 0.0\nsamples = 1\nvalue = 54.0"] ;
429 -> 430 ;
431 [label="squared_error = 0.0\nsamples = 1\nvalue = 53.0"] ;
429 -> 431 ;
432 [label="temp_2 <= 51.0\nsquared_error = 0.2\nsamples = 2\nvalue = 54.4"] ;
422 -> 432 ;
433 [label="squared_error = 0.0\nsamples = 1\nvalue = 54.0"] ;
432 -> 433 ;
434 [label="squared_error = 0.0\nsamples = 1\nvalue = 55.0"] ;
432 -> 434 ;
435 [label="temp_1 <= 51.5\nsquared_error = 6.2\nsamples = 2\nvalue = 57.5"] ;
421 -> 435 ;
436 [label="squared_error = 0.0\nsamples = 1\nvalue = 60.0"] ;
435 -> 436 ;
437 [label="squared_error = 0.0\nsamples = 1\nvalue = 55.0"] ;
435 -> 437 ;
438 [label="fall <= 0.5\nsquared_error = 11.4\nsamples = 4\nvalue = 45.6"] ;
412 -> 438 ;
439 [label="ws_1 <= 9.5\nsquared_error = 4.5\nsamples = 3\nvalue = 47.0"] ;
438 -> 439 ;
440 [label="squared_error = 0.0\nsamples = 1\nvalue = 45.0"] ;
439 -> 440 ;
441 [label="average <= 46.8\nsquared_error = 1.0\nsamples = 2\nvalue = 49.0"] ;
439 -> 441 ;
442 [label="squared_error = 0.0\nsamples = 1\nvalue = 48.0"] ;
441 -> 442 ;
443 [label="squared_error = 0.0\nsamples = 1\nvalue = 50.0"] ;
441 -> 443 ;
444 [label="squared_error = 0.0\nsamples = 1\nvalue = 40.0"] ;
438 -> 444 ;
445 [label="ws_1 <= 9.2\nsquared_error = 13.6\nsamples = 31\nvalue = 53.6"] ;
411 -> 445 ;
446 [label="ws_1 <= 5.0\nsquared_error = 11.6\nsamples = 15\nvalue = 55.4"] ;
445 -> 446 ;
447 [label="temp_1 <= 51.5\nsquared_error = 4.0\nsamples = 5\nvalue = 53.0"] ;
446 -> 447 ;
448 [label="Thurs <= 0.5\nsquared_error = 0.9\nsamples = 2\nvalue = 54.7"] ;
447 -> 448 ;
449 [label="squared_error = 0.0\nsamples = 1\nvalue = 54.0"] ;
448 -> 449 ;
450 [label="squared_error = 0.0\nsamples = 1\nvalue = 56.0"] ;
448 -> 450 ;
451 [label="fall <= 0.5\nsquared_error = 3.2\nsamples = 3\nvalue = 52.0"] ;
447 -> 451 ;
452 [label="squared_error = 0.0\nsamples = 1\nvalue = 50.0"] ;
451 -> 452 ;
453 [label="Fri <= 0.5\nsquared_error = 0.9\nsamples = 2\nvalue = 53.3"] ;
451 -> 453 ;
454 [label="squared_error = 0.0\nsamples = 1\nvalue = 54.0"] ;
453 -> 454 ;
455 [label="squared_error = 0.0\nsamples = 1\nvalue = 52.0"] ;
453 -> 455 ;
456 [label="Fri <= 0.5\nsquared_error = 11.0\nsamples = 10\nvalue = 56.6"] ;
446 -> 456 ;
457 [label="prcp_1 <= 0.0\nsquared_error = 5.9\nsamples = 7\nvalue = 57.5"] ;
456 -> 457 ;
458 [label="temp_1 <= 55.5\nsquared_error = 1.0\nsamples = 2\nvalue = 62.0"] ;
457 -> 458 ;
459 [label="squared_error = 0.0\nsamples = 1\nvalue = 63.0"] ;
458 -> 459 ;
460 [label="squared_error = 0.0\nsamples = 1\nvalue = 61.0"] ;
458 -> 460 ;
461 [label="temp_2 <= 55.5\nsquared_error = 2.0\nsamples = 5\nvalue = 56.6"] ;
457 -> 461 ;
462 [label="fall <= 0.5\nsquared_error = 0.6\nsamples = 3\nvalue = 57.7"] ;
461 -> 462 ;
463 [label="squared_error = 0.0\nsamples = 2\nvalue = 58.0"] ;
462 -> 463 ;
464 [label="squared_error = 0.0\nsamples = 1\nvalue = 56.0"] ;
462 -> 464 ;
465 [label="squared_error = 0.0\nsamples = 2\nvalue = 55.0"] ;
461 -> 465 ;
466 [label="average <= 49.0\nsquared_error = 17.0\nsamples = 3\nvalue = 54.0"] ;
456 -> 466 ;
467 [label="squared_error = 0.0\nsamples = 1\nvalue = 47.0"] ;
466 -> 467 ;
468 [label="average <= 49.5\nsquared_error = 0.9\nsamples = 2\nvalue = 56.3"] ;
466 -> 468 ;
469 [label="squared_error = 0.0\nsamples = 1\nvalue = 55.0"] ;
468 -> 469 ;
470 [label="squared_error = 0.0\nsamples = 1\nvalue = 57.0"] ;
468 -> 470 ;
471 [label="temp_1 <= 52.5\nsquared_error = 10.0\nsamples = 16\nvalue = 52.0"] ;
445 -> 471 ;
472 [label="ws_1 <= 10.0\nsquared_error = 3.9\nsamples = 5\nvalue = 49.1"] ;
471 -> 472 ;
473 [label="squared_error = 0.0\nsamples = 1\nvalue = 47.0"] ;
472 -> 473 ;
474 [label="Wed <= 0.5\nsquared_error = 1.8\nsamples = 4\nvalue = 50.4"] ;
472 -> 474 ;
475 [label="average <= 50.1\nsquared_error = 0.2\nsamples = 3\nvalue = 49.8"] ;
474 -> 475 ;
476 [label="squared_error = 0.0\nsamples = 1\nvalue = 49.0"] ;
475 -> 476 ;
477 [label="squared_error = 0.0\nsamples = 2\nvalue = 50.0"] ;
475 -> 477 ;
478 [label="squared_error = 0.0\nsamples = 1\nvalue = 53.0"] ;
474 -> 478 ;
479 [label="prcp_1 <= 1.1\nsquared_error = 7.5\nsamples = 11\nvalue = 53.3"] ;
471 -> 479 ;
480 [label="prcp_1 <= 0.8\nsquared_error = 7.0\nsamples = 9\nvalue = 54.3"] ;
479 -> 480 ;
481 [label="temp_2 <= 55.5\nsquared_error = 4.4\nsamples = 7\nvalue = 53.5"] ;
480 -> 481 ;
482 [label="average <= 50.1\nsquared_error = 2.8\nsamples = 4\nvalue = 55.5"] ;
481 -> 482 ;
483 [label="squared_error = 0.0\nsamples = 2\nvalue = 57.0"] ;
482 -> 483 ;
484 [label="temp_1 <= 53.5\nsquared_error = 1.0\nsamples = 2\nvalue = 54.0"] ;
482 -> 484 ;
485 [label="squared_error = 0.0\nsamples = 1\nvalue = 55.0"] ;
484 -> 485 ;
486 [label="squared_error = 0.0\nsamples = 1\nvalue = 53.0"] ;
484 -> 486 ;
487 [label="prcp_1 <= 0.3\nsquared_error = 2.0\nsamples = 3\nvalue = 52.4"] ;
481 -> 487 ;
488 [label="squared_error = 0.0\nsamples = 2\nvalue = 53.0"] ;
487 -> 488 ;
489 [label="squared_error = 0.0\nsamples = 1\nvalue = 49.0"] ;
487 -> 489 ;
490 [label="Sun <= 0.5\nsquared_error = 0.2\nsamples = 2\nvalue = 58.5"] ;
480 -> 490 ;
491 [label="squared_error = 0.0\nsamples = 1\nvalue = 58.0"] ;
490 -> 491 ;
492 [label="squared_error = 0.0\nsamples = 1\nvalue = 59.0"] ;
490 -> 492 ;
493 [label="Tues <= 0.5\nsquared_error = 1.0\nsamples = 2\nvalue = 51.0"] ;
479 -> 493 ;
494 [label="squared_error = 0.0\nsamples = 1\nvalue = 50.0"] ;
493 -> 494 ;
495 [label="squared_error = 0.0\nsamples = 1\nvalue = 52.0"] ;
493 -> 495 ;
496 [label="temp_1 <= 53.5\nsquared_error = 17.8\nsamples = 138\nvalue = 55.6"] ;
382 -> 496 ;
497 [label="average <= 55.8\nsquared_error = 13.5\nsamples = 52\nvalue = 53.7"] ;
496 -> 497 ;
498 [label="ws_1 <= 12.4\nsquared_error = 11.5\nsamples = 30\nvalue = 52.8"] ;
497 -> 498 ;
499 [label="Tues <= 0.5\nsquared_error = 8.6\nsamples = 24\nvalue = 53.6"] ;
498 -> 499 ;
500 [label="prcp_1 <= 0.0\nsquared_error = 7.2\nsamples = 19\nvalue = 54.0"] ;
499 -> 500 ;
501 [label="ws_1 <= 6.8\nsquared_error = 9.6\nsamples = 7\nvalue = 55.7"] ;
500 -> 501 ;
502 [label="Fri <= 0.5\nsquared_error = 3.2\nsamples = 5\nvalue = 54.5"] ;
501 -> 502 ;
503 [label="ws_1 <= 3.4\nsquared_error = 0.2\nsamples = 4\nvalue = 55.4"] ;
502 -> 503 ;
504 [label="squared_error = 0.0\nsamples = 1\nvalue = 56.0"] ;
503 -> 504 ;
505 [label="squared_error = 0.0\nsamples = 3\nvalue = 55.0"] ;
503 -> 505 ;
506 [label="squared_error = 0.0\nsamples = 1\nvalue = 51.0"] ;
502 -> 506 ;
507 [label="spring <= 0.5\nsquared_error = 0.2\nsamples = 2\nvalue = 61.5"] ;
501 -> 507 ;
508 [label="squared_error = 0.0\nsamples = 1\nvalue = 61.0"] ;
507 -> 508 ;
509 [label="squared_error = 0.0\nsamples = 1\nvalue = 62.0"] ;
507 -> 509 ;
510 [label="fall <= 0.5\nsquared_error = 4.4\nsamples = 12\nvalue = 53.3"] ;
500 -> 510 ;
511 [label="average <= 54.3\nsquared_error = 3.3\nsamples = 8\nvalue = 54.4"] ;
510 -> 511 ;
512 [label="average <= 53.5\nsquared_error = 2.4\nsamples = 4\nvalue = 55.3"] ;
511 -> 512 ;
513 [label="temp_2 <= 49.5\nsquared_error = 0.8\nsamples = 2\nvalue = 54.4"] ;
512 -> 513 ;
514 [label="squared_error = 0.0\nsamples = 1\nvalue = 53.0"] ;
513 -> 514 ;
515 [label="squared_error = 0.0\nsamples = 1\nvalue = 55.0"] ;
513 -> 515 ;
516 [label="Fri <= 0.5\nsquared_error = 0.2\nsamples = 2\nvalue = 57.3"] ;
512 -> 516 ;
517 [label="squared_error = 0.0\nsamples = 1\nvalue = 57.0"] ;
516 -> 517 ;
518 [label="squared_error = 0.0\nsamples = 1\nvalue = 58.0"] ;
516 -> 518 ;
519 [label="ws_1 <= 6.5\nsquared_error = 1.4\nsamples = 4\nvalue = 53.0"] ;
511 -> 519 ;
520 [label="squared_error = 0.0\nsamples = 1\nvalue = 54.0"] ;
519 -> 520 ;
521 [label="ws_1 <= 9.5\nsquared_error = 0.2\nsamples = 3\nvalue = 51.7"] ;
519 -> 521 ;
522 [label="squared_error = 0.0\nsamples = 1\nvalue = 51.0"] ;
521 -> 522 ;
523 [label="squared_error = 0.0\nsamples = 2\nvalue = 52.0"] ;
521 -> 523 ;
524 [label="average <= 52.3\nsquared_error = 0.8\nsamples = 4\nvalue = 51.4"] ;
510 -> 524 ;
525 [label="squared_error = 0.0\nsamples = 2\nvalue = 52.0"] ;
524 -> 525 ;
526 [label="squared_error = 0.0\nsamples = 2\nvalue = 50.0"] ;
524 -> 526 ;
527 [label="ws_1 <= 7.5\nsquared_error = 9.0\nsamples = 5\nvalue = 50.6"] ;
499 -> 527 ;
528 [label="spring <= 0.5\nsquared_error = 2.9\nsamples = 3\nvalue = 52.7"] ;
527 -> 528 ;
529 [label="temp_2 <= 55.5\nsquared_error = 0.2\nsamples = 2\nvalue = 51.5"] ;
528 -> 529 ;
530 [label="squared_error = 0.0\nsamples = 1\nvalue = 51.0"] ;
529 -> 530 ;
531 [label="squared_error = 0.0\nsamples = 1\nvalue = 52.0"] ;
529 -> 531 ;
532 [label="squared_error = 0.0\nsamples = 1\nvalue = 55.0"] ;
528 -> 532 ;
533 [label="fall <= 0.5\nsquared_error = 2.2\nsamples = 2\nvalue = 47.5"] ;
527 -> 533 ;
534 [label="squared_error = 0.0\nsamples = 1\nvalue = 49.0"] ;
533 -> 534 ;
535 [label="squared_error = 0.0\nsamples = 1\nvalue = 46.0"] ;
533 -> 535 ;
536 [label="fall <= 0.5\nsquared_error = 11.8\nsamples = 6\nvalue = 50.0"] ;
498 -> 536 ;
537 [label="temp_2 <= 58.5\nsquared_error = 5.6\nsamples = 5\nvalue = 48.8"] ;
536 -> 537 ;
538 [label="average <= 52.9\nsquared_error = 1.4\nsamples = 4\nvalue = 47.8"] ;
537 -> 538 ;
539 [label="squared_error = 0.0\nsamples = 1\nvalue = 46.0"] ;
538 -> 539 ;
540 [label="Thurs <= 0.5\nsquared_error = 0.6\nsamples = 3\nvalue = 48.3"] ;
538 -> 540 ;
541 [label="squared_error = 0.0\nsamples = 2\nvalue = 48.0"] ;
540 -> 541 ;
542 [label="squared_error = 0.0\nsamples = 1\nvalue = 50.0"] ;
540 -> 542 ;
543 [label="squared_error = 0.0\nsamples = 1\nvalue = 53.0"] ;
537 -> 543 ;
544 [label="squared_error = 0.0\nsamples = 1\nvalue = 56.0"] ;
536 -> 544 ;
545 [label="ws_1 <= 7.0\nsquared_error = 13.7\nsamples = 22\nvalue = 55.0"] ;
497 -> 545 ;
546 [label="prcp_1 <= 0.2\nsquared_error = 14.4\nsamples = 9\nvalue = 52.5"] ;
545 -> 546 ;
547 [label="prcp_1 <= 0.0\nsquared_error = 7.8\nsamples = 8\nvalue = 53.7"] ;
546 -> 547 ;
548 [label="ws_1 <= 4.9\nsquared_error = 5.7\nsamples = 6\nvalue = 52.9"] ;
547 -> 548 ;
549 [label="ws_1 <= 3.9\nsquared_error = 4.0\nsamples = 2\nvalue = 50.0"] ;
548 -> 549 ;
550 [label="squared_error = 0.0\nsamples = 1\nvalue = 52.0"] ;
549 -> 550 ;
551 [label="squared_error = 0.0\nsamples = 1\nvalue = 48.0"] ;
549 -> 551 ;
552 [label="temp_1 <= 52.5\nsquared_error = 3.1\nsamples = 4\nvalue = 53.7"] ;
548 -> 552 ;
553 [label="squared_error = 0.0\nsamples = 3\nvalue = 53.0"] ;
552 -> 553 ;
554 [label="squared_error = 0.0\nsamples = 1\nvalue = 58.0"] ;
552 -> 554 ;
555 [label="spring <= 0.5\nsquared_error = 0.2\nsamples = 2\nvalue = 57.5"] ;
547 -> 555 ;
556 [label="squared_error = 0.0\nsamples = 1\nvalue = 58.0"] ;
555 -> 556 ;
557 [label="squared_error = 0.0\nsamples = 1\nvalue = 57.0"] ;
555 -> 557 ;
558 [label="squared_error = 0.0\nsamples = 1\nvalue = 46.0"] ;
546 -> 558 ;
559 [label="Mon <= 0.5\nsquared_error = 7.4\nsamples = 13\nvalue = 56.5"] ;
545 -> 559 ;
560 [label="average <= 58.7\nsquared_error = 4.4\nsamples = 11\nvalue = 55.4"] ;
559 -> 560 ;
561 [label="temp_1 <= 52.5\nsquared_error = 1.9\nsamples = 7\nvalue = 54.4"] ;
560 -> 561 ;
562 [label="average <= 57.1\nsquared_error = 0.5\nsamples = 5\nvalue = 53.6"] ;
561 -> 562 ;
563 [label="Thurs <= 0.5\nsquared_error = 0.2\nsamples = 2\nvalue = 54.2"] ;
562 -> 563 ;
564 [label="squared_error = 0.0\nsamples = 1\nvalue = 55.0"] ;
563 -> 564 ;
565 [label="squared_error = 0.0\nsamples = 1\nvalue = 54.0"] ;
563 -> 565 ;
566 [label="squared_error = 0.0\nsamples = 3\nvalue = 53.0"] ;
562 -> 566 ;
567 [label="prcp_1 <= 0.1\nsquared_error = 0.2\nsamples = 2\nvalue = 56.3"] ;
561 -> 567 ;
568 [label="squared_error = 0.0\nsamples = 1\nvalue = 56.0"] ;
567 -> 568 ;
569 [label="squared_error = 0.0\nsamples = 1\nvalue = 57.0"] ;
567 -> 569 ;
570 [label="prcp_1 <= 0.2\nsquared_error = 3.2\nsamples = 4\nvalue = 57.3"] ;
560 -> 570 ;
571 [label="squared_error = 0.0\nsamples = 1\nvalue = 54.0"] ;
570 -> 571 ;
572 [label="average <= 62.1\nsquared_error = 1.2\nsamples = 3\nvalue = 58.0"] ;
570 -> 572 ;
573 [label="average <= 59.4\nsquared_error = 0.2\nsamples = 2\nvalue = 57.5"] ;
572 -> 573 ;
574 [label="squared_error = 0.0\nsamples = 1\nvalue = 58.0"] ;
573 -> 574 ;
575 [label="squared_error = 0.0\nsamples = 1\nvalue = 57.0"] ;
573 -> 575 ;
576 [label="squared_error = 0.0\nsamples = 1\nvalue = 60.0"] ;
572 -> 576 ;
577 [label="ws_1 <= 12.2\nsquared_error = 0.2\nsamples = 2\nvalue = 60.2"] ;
559 -> 577 ;
578 [label="squared_error = 0.0\nsamples = 1\nvalue = 60.0"] ;
577 -> 578 ;
579 [label="squared_error = 0.0\nsamples = 1\nvalue = 61.0"] ;
577 -> 579 ;
580 [label="ws_1 <= 6.2\nsquared_error = 16.8\nsamples = 86\nvalue = 56.8"] ;
496 -> 580 ;
581 [label="Thurs <= 0.5\nsquared_error = 17.6\nsamples = 34\nvalue = 58.4"] ;
580 -> 581 ;
582 [label="Fri <= 0.5\nsquared_error = 17.2\nsamples = 28\nvalue = 59.4"] ;
581 -> 582 ;
583 [label="ws_1 <= 4.8\nsquared_error = 17.1\nsamples = 20\nvalue = 60.5"] ;
582 -> 583 ;
584 [label="Sat <= 0.5\nsquared_error = 11.4\nsamples = 9\nvalue = 57.0"] ;
583 -> 584 ;
585 [label="prcp_1 <= 0.1\nsquared_error = 6.6\nsamples = 5\nvalue = 59.6"] ;
584 -> 585 ;
586 [label="temp_2 <= 54.0\nsquared_error = 1.7\nsamples = 4\nvalue = 60.8"] ;
585 -> 586 ;
587 [label="squared_error = 0.0\nsamples = 2\nvalue = 62.0"] ;
586 -> 587 ;
588 [label="Tues <= 0.5\nsquared_error = 0.2\nsamples = 2\nvalue = 59.5"] ;
586 -> 588 ;
589 [label="squared_error = 0.0\nsamples = 1\nvalue = 60.0"] ;
588 -> 589 ;
590 [label="squared_error = 0.0\nsamples = 1\nvalue = 59.0"] ;
588 -> 590 ;
591 [label="squared_error = 0.0\nsamples = 1\nvalue = 55.0"] ;
585 -> 591 ;
592 [label="ws_1 <= 3.8\nsquared_error = 2.6\nsamples = 4\nvalue = 54.4"] ;
584 -> 592 ;
593 [label="winter <= 0.5\nsquared_error = 0.2\nsamples = 2\nvalue = 55.7"] ;
592 -> 593 ;
594 [label="squared_error = 0.0\nsamples = 1\nvalue = 55.0"] ;
593 -> 594 ;
595 [label="squared_error = 0.0\nsamples = 1\nvalue = 56.0"] ;
593 -> 595 ;
596 [label="average <= 55.4\nsquared_error = 0.2\nsamples = 2\nvalue = 52.5"] ;
592 -> 596 ;
597 [label="squared_error = 0.0\nsamples = 1\nvalue = 52.0"] ;
596 -> 597 ;
598 [label="squared_error = 0.0\nsamples = 1\nvalue = 53.0"] ;
596 -> 598 ;
599 [label="temp_2 <= 59.0\nsquared_error = 10.6\nsamples = 11\nvalue = 62.3"] ;
583 -> 599 ;
600 [label="temp_2 <= 52.0\nsquared_error = 10.8\nsamples = 8\nvalue = 63.8"] ;
599 -> 600 ;
601 [label="squared_error = 0.0\nsamples = 1\nvalue = 57.0"] ;
600 -> 601 ;
602 [label="temp_1 <= 56.5\nsquared_error = 7.2\nsamples = 7\nvalue = 64.5"] ;
600 -> 602 ;
603 [label="Mon <= 0.5\nsquared_error = 4.5\nsamples = 6\nvalue = 63.9"] ;
602 -> 603 ;
604 [label="ws_1 <= 5.8\nsquared_error = 2.0\nsamples = 5\nvalue = 64.4"] ;
603 -> 604 ;
605 [label="Tues <= 0.5\nsquared_error = 0.5\nsamples = 4\nvalue = 64.0"] ;
604 -> 605 ;
606 [label="fall <= 0.5\nsquared_error = 0.2\nsamples = 3\nvalue = 64.3"] ;
605 -> 606 ;
607 [label="squared_error = 0.0\nsamples = 2\nvalue = 64.0"] ;
606 -> 607 ;
608 [label="squared_error = 0.0\nsamples = 1\nvalue = 65.0"] ;
606 -> 608 ;
609 [label="squared_error = 0.0\nsamples = 1\nvalue = 63.0"] ;
605 -> 609 ;
610 [label="squared_error = 0.0\nsamples = 1\nvalue = 68.0"] ;
604 -> 610 ;
611 [label="squared_error = 0.0\nsamples = 1\nvalue = 59.0"] ;
603 -> 611 ;
612 [label="squared_error = 0.0\nsamples = 1\nvalue = 70.0"] ;
602 -> 612 ;
613 [label="Wed <= 0.5\nsquared_error = 1.5\nsamples = 3\nvalue = 60.0"] ;
599 -> 613 ;
614 [label="prcp_1 <= 0.6\nsquared_error = 0.2\nsamples = 2\nvalue = 59.3"] ;
613 -> 614 ;
615 [label="squared_error = 0.0\nsamples = 1\nvalue = 60.0"] ;
614 -> 615 ;
616 [label="squared_error = 0.0\nsamples = 1\nvalue = 59.0"] ;
614 -> 616 ;
617 [label="squared_error = 0.0\nsamples = 1\nvalue = 62.0"] ;
613 -> 617 ;
618 [label="ws_1 <= 4.7\nsquared_error = 9.0\nsamples = 8\nvalue = 57.0"] ;
582 -> 618 ;
619 [label="average <= 59.2\nsquared_error = 2.0\nsamples = 2\nvalue = 61.0"] ;
618 -> 619 ;
620 [label="squared_error = 0.0\nsamples = 1\nvalue = 59.0"] ;
619 -> 620 ;
621 [label="squared_error = 0.0\nsamples = 1\nvalue = 62.0"] ;
619 -> 621 ;
622 [label="temp_1 <= 54.5\nsquared_error = 5.4\nsamples = 6\nvalue = 55.9"] ;
618 -> 622 ;
623 [label="temp_2 <= 47.5\nsquared_error = 0.2\nsamples = 2\nvalue = 53.7"] ;
622 -> 623 ;
624 [label="squared_error = 0.0\nsamples = 1\nvalue = 53.0"] ;
623 -> 624 ;
625 [label="squared_error = 0.0\nsamples = 1\nvalue = 54.0"] ;
623 -> 625 ;
626 [label="temp_2 <= 53.5\nsquared_error = 4.7\nsamples = 4\nvalue = 56.8"] ;
622 -> 626 ;
627 [label="squared_error = 0.0\nsamples = 1\nvalue = 59.0"] ;
626 -> 627 ;
628 [label="temp_2 <= 55.5\nsquared_error = 4.0\nsamples = 3\nvalue = 56.0"] ;
626 -> 628 ;
629 [label="squared_error = 0.0\nsamples = 1\nvalue = 52.0"] ;
628 -> 629 ;
630 [label="temp_1 <= 56.0\nsquared_error = 1.0\nsamples = 2\nvalue = 56.8"] ;
628 -> 630 ;
631 [label="squared_error = 0.0\nsamples = 1\nvalue = 58.0"] ;
630 -> 631 ;
632 [label="squared_error = 0.0\nsamples = 1\nvalue = 56.0"] ;
630 -> 632 ;
633 [label="temp_2 <= 58.5\nsquared_error = 5.1\nsamples = 6\nvalue = 55.2"] ;
581 -> 633 ;
634 [label="average <= 52.5\nsquared_error = 2.8\nsamples = 4\nvalue = 53.4"] ;
633 -> 634 ;
635 [label="average <= 51.6\nsquared_error = 0.2\nsamples = 2\nvalue = 55.3"] ;
634 -> 635 ;
636 [label="squared_error = 0.0\nsamples = 1\nvalue = 55.0"] ;
635 -> 636 ;
637 [label="squared_error = 0.0\nsamples = 1\nvalue = 56.0"] ;
635 -> 637 ;
638 [label="squared_error = 0.0\nsamples = 2\nvalue = 52.0"] ;
634 -> 638 ;
639 [label="temp_1 <= 54.5\nsquared_error = 0.1\nsamples = 2\nvalue = 57.2"] ;
633 -> 639 ;
640 [label="squared_error = 0.0\nsamples = 1\nvalue = 57.0"] ;
639 -> 640 ;
641 [label="squared_error = 0.0\nsamples = 1\nvalue = 58.0"] ;
639 -> 641 ;
642 [label="ws_1 <= 10.7\nsquared_error = 13.3\nsamples = 52\nvalue = 55.7"] ;
580 -> 642 ;
643 [label="average <= 53.1\nsquared_error = 15.3\nsamples = 39\nvalue = 54.9"] ;
642 -> 643 ;
644 [label="Wed <= 0.5\nsquared_error = 5.7\nsamples = 9\nvalue = 52.9"] ;
643 -> 644 ;
645 [label="average <= 52.6\nsquared_error = 0.3\nsamples = 6\nvalue = 51.8"] ;
644 -> 645 ;
646 [label="squared_error = 0.0\nsamples = 5\nvalue = 52.0"] ;
645 -> 646 ;
647 [label="squared_error = 0.0\nsamples = 1\nvalue = 50.0"] ;
645 -> 647 ;
648 [label="fall <= 0.5\nsquared_error = 6.0\nsamples = 3\nvalue = 57.0"] ;
644 -> 648 ;
649 [label="temp_1 <= 55.5\nsquared_error = 2.2\nsamples = 2\nvalue = 58.5"] ;
648 -> 649 ;
650 [label="squared_error = 0.0\nsamples = 1\nvalue = 57.0"] ;
649 -> 650 ;
651 [label="squared_error = 0.0\nsamples = 1\nvalue = 60.0"] ;
649 -> 651 ;
652 [label="squared_error = 0.0\nsamples = 1\nvalue = 54.0"] ;
648 -> 652 ;
653 [label="average <= 57.5\nsquared_error = 16.6\nsamples = 30\nvalue = 55.7"] ;
643 -> 653 ;
654 [label="average <= 56.7\nsquared_error = 24.0\nsamples = 14\nvalue = 57.2"] ;
653 -> 654 ;
655 [label="temp_1 <= 56.5\nsquared_error = 3.6\nsamples = 11\nvalue = 55.2"] ;
654 -> 655 ;
656 [label="temp_1 <= 55.5\nsquared_error = 1.8\nsamples = 8\nvalue = 54.5"] ;
655 -> 656 ;
657 [label="temp_2 <= 53.5\nsquared_error = 1.4\nsamples = 5\nvalue = 53.6"] ;
656 -> 657 ;
658 [label="prcp_1 <= 0.2\nsquared_error = 0.2\nsamples = 2\nvalue = 52.5"] ;
657 -> 658 ;
659 [label="squared_error = 0.0\nsamples = 1\nvalue = 53.0"] ;
658 -> 659 ;
660 [label="squared_error = 0.0\nsamples = 1\nvalue = 52.0"] ;
658 -> 660 ;
661 [label="prcp_1 <= 0.0\nsquared_error = 0.9\nsamples = 3\nvalue = 54.3"] ;
657 -> 661 ;
662 [label="squared_error = 0.0\nsamples = 1\nvalue = 53.0"] ;
661 -> 662 ;
663 [label="squared_error = 0.0\nsamples = 2\nvalue = 55.0"] ;
661 -> 663 ;
664 [label="ws_1 <= 6.7\nsquared_error = 0.6\nsamples = 3\nvalue = 55.4"] ;
656 -> 664 ;
665 [label="squared_error = 0.0\nsamples = 1\nvalue = 57.0"] ;
664 -> 665 ;
666 [label="squared_error = 0.0\nsamples = 2\nvalue = 55.0"] ;
664 -> 666 ;
667 [label="prcp_1 <= 0.4\nsquared_error = 1.6\nsamples = 3\nvalue = 57.7"] ;
655 -> 667 ;
668 [label="prcp_1 <= 0.1\nsquared_error = 0.2\nsamples = 2\nvalue = 58.5"] ;
667 -> 668 ;
669 [label="squared_error = 0.0\nsamples = 1\nvalue = 58.0"] ;
668 -> 669 ;
670 [label="squared_error = 0.0\nsamples = 1\nvalue = 59.0"] ;
668 -> 670 ;
671 [label="squared_error = 0.0\nsamples = 1\nvalue = 56.0"] ;
667 -> 671 ;
672 [label="Wed <= 0.5\nsquared_error = 38.2\nsamples = 3\nvalue = 63.5"] ;
654 -> 672 ;
673 [label="average <= 57.3\nsquared_error = 16.0\nsamples = 2\nvalue = 58.0"] ;
672 -> 673 ;
674 [label="squared_error = 0.0\nsamples = 1\nvalue = 54.0"] ;
673 -> 674 ;
675 [label="squared_error = 0.0\nsamples = 1\nvalue = 62.0"] ;
673 -> 675 ;
676 [label="squared_error = 0.0\nsamples = 1\nvalue = 69.0"] ;
672 -> 676 ;
677 [label="prcp_1 <= 0.0\nsquared_error = 9.2\nsamples = 16\nvalue = 54.7"] ;
653 -> 677 ;
678 [label="ws_1 <= 7.4\nsquared_error = 1.1\nsamples = 3\nvalue = 51.6"] ;
677 -> 678 ;
679 [label="squared_error = 0.0\nsamples = 1\nvalue = 50.0"] ;
678 -> 679 ;
680 [label="Mon <= 0.5\nsquared_error = 0.2\nsamples = 2\nvalue = 52.2"] ;
678 -> 680 ;
681 [label="squared_error = 0.0\nsamples = 1\nvalue = 52.0"] ;
680 -> 681 ;
682 [label="squared_error = 0.0\nsamples = 1\nvalue = 53.0"] ;
680 -> 682 ;
683 [label="temp_2 <= 58.5\nsquared_error = 7.4\nsamples = 13\nvalue = 55.8"] ;
677 -> 683 ;
684 [label="temp_2 <= 53.0\nsquared_error = 4.9\nsamples = 5\nvalue = 58.5"] ;
683 -> 684 ;
685 [label="average <= 60.8\nsquared_error = 0.2\nsamples = 2\nvalue = 56.3"] ;
684 -> 685 ;
686 [label="squared_error = 0.0\nsamples = 1\nvalue = 57.0"] ;
685 -> 686 ;
687 [label="squared_error = 0.0\nsamples = 1\nvalue = 56.0"] ;
685 -> 687 ;
688 [label="temp_2 <= 54.5\nsquared_error = 0.2\nsamples = 3\nvalue = 60.7"] ;
684 -> 688 ;
689 [label="squared_error = 0.0\nsamples = 1\nvalue = 60.0"] ;
688 -> 689 ;
690 [label="squared_error = 0.0\nsamples = 2\nvalue = 61.0"] ;
688 -> 690 ;
691 [label="temp_2 <= 65.5\nsquared_error = 3.6\nsamples = 8\nvalue = 54.5"] ;
683 -> 691 ;
692 [label="temp_2 <= 63.5\nsquared_error = 2.9\nsamples = 7\nvalue = 55.0"] ;
691 -> 692 ;
693 [label="ws_1 <= 7.7\nsquared_error = 0.9\nsamples = 5\nvalue = 54.0"] ;
692 -> 693 ;
694 [label="squared_error = 0.0\nsamples = 1\nvalue = 56.0"] ;
693 -> 694 ;
695 [label="ws_1 <= 9.3\nsquared_error = 0.2\nsamples = 4\nvalue = 53.7"] ;
693 -> 695 ;
696 [label="squared_error = 0.0\nsamples = 2\nvalue = 54.0"] ;
695 -> 696 ;
697 [label="squared_error = 0.0\nsamples = 2\nvalue = 53.0"] ;
695 -> 697 ;
698 [label="average <= 61.9\nsquared_error = 1.7\nsamples = 2\nvalue = 56.8"] ;
692 -> 698 ;
699 [label="squared_error = 0.0\nsamples = 1\nvalue = 59.0"] ;
698 -> 699 ;
700 [label="squared_error = 0.0\nsamples = 1\nvalue = 56.0"] ;
698 -> 700 ;
701 [label="squared_error = 0.0\nsamples = 1\nvalue = 52.0"] ;
691 -> 701 ;
702 [label="average <= 53.1\nsquared_error = 5.0\nsamples = 13\nvalue = 57.3"] ;
642 -> 702 ;
703 [label="squared_error = 0.0\nsamples = 2\nvalue = 60.0"] ;
702 -> 703 ;
704 [label="average <= 60.6\nsquared_error = 4.5\nsamples = 11\nvalue = 56.9"] ;
702 -> 704 ;
705 [label="ws_1 <= 12.2\nsquared_error = 3.2\nsamples = 8\nvalue = 56.1"] ;
704 -> 705 ;
706 [label="Sat <= 0.5\nsquared_error = 1.2\nsamples = 4\nvalue = 57.2"] ;
705 -> 706 ;
707 [label="temp_2 <= 57.5\nsquared_error = 0.9\nsamples = 2\nvalue = 58.7"] ;
706 -> 707 ;
708 [label="squared_error = 0.0\nsamples = 1\nvalue = 58.0"] ;
707 -> 708 ;
709 [label="squared_error = 0.0\nsamples = 1\nvalue = 60.0"] ;
707 -> 709 ;
710 [label="temp_1 <= 55.0\nsquared_error = 0.2\nsamples = 2\nvalue = 56.6"] ;
706 -> 710 ;
711 [label="squared_error = 0.0\nsamples = 1\nvalue = 56.0"] ;
710 -> 711 ;
712 [label="squared_error = 0.0\nsamples = 1\nvalue = 57.0"] ;
710 -> 712 ;
713 [label="ws_1 <= 13.8\nsquared_error = 0.3\nsamples = 4\nvalue = 54.0"] ;
705 -> 713 ;
714 [label="Wed <= 0.5\nsquared_error = 0.2\nsamples = 3\nvalue = 53.8"] ;
713 -> 714 ;
715 [label="squared_error = 0.0\nsamples = 2\nvalue = 54.0"] ;
714 -> 715 ;
716 [label="squared_error = 0.0\nsamples = 1\nvalue = 53.0"] ;
714 -> 716 ;
717 [label="squared_error = 0.0\nsamples = 1\nvalue = 55.0"] ;
713 -> 717 ;
718 [label="Sat <= 0.5\nsquared_error = 0.8\nsamples = 3\nvalue = 59.2"] ;
704 -> 718 ;
719 [label="prcp_1 <= 0.4\nsquared_error = 0.2\nsamples = 2\nvalue = 58.3"] ;
718 -> 719 ;
720 [label="squared_error = 0.0\nsamples = 1\nvalue = 59.0"] ;
719 -> 720 ;
721 [label="squared_error = 0.0\nsamples = 1\nvalue = 58.0"] ;
719 -> 721 ;
722 [label="squared_error = 0.0\nsamples = 1\nvalue = 60.0"] ;
718 -> 722 ;
723 [label="average <= 62.4\nsquared_error = 24.0\nsamples = 159\nvalue = 60.5"] ;
381 -> 723 ;
724 [label="average <= 55.1\nsquared_error = 21.1\nsamples = 102\nvalue = 59.2"] ;
723 -> 724 ;
725 [label="temp_2 <= 61.5\nsquared_error = 15.2\nsamples = 40\nvalue = 57.5"] ;
724 -> 725 ;
726 [label="prcp_1 <= 0.1\nsquared_error = 12.0\nsamples = 31\nvalue = 58.5"] ;
725 -> 726 ;
727 [label="prcp_1 <= 0.0\nsquared_error = 6.3\nsamples = 16\nvalue = 59.9"] ;
726 -> 727 ;
728 [label="Wed <= 0.5\nsquared_error = 5.1\nsamples = 14\nvalue = 59.3"] ;
727 -> 728 ;
729 [label="average <= 52.9\nsquared_error = 3.7\nsamples = 12\nvalue = 59.7"] ;
728 -> 729 ;
730 [label="Fri <= 0.5\nsquared_error = 2.9\nsamples = 10\nvalue = 60.0"] ;
729 -> 730 ;
731 [label="average <= 48.2\nsquared_error = 2.1\nsamples = 9\nvalue = 60.3"] ;
730 -> 731 ;
732 [label="squared_error = 0.0\nsamples = 2\nvalue = 58.0"] ;
731 -> 732 ;
733 [label="Tues <= 0.5\nsquared_error = 1.6\nsamples = 7\nvalue = 60.6"] ;
731 -> 733 ;
734 [label="Sun <= 0.5\nsquared_error = 1.0\nsamples = 4\nvalue = 60.2"] ;
733 -> 734 ;
735 [label="temp_2 <= 56.5\nsquared_error = 0.4\nsamples = 3\nvalue = 60.0"] ;
734 -> 735 ;
736 [label="average <= 50.6\nsquared_error = 0.2\nsamples = 2\nvalue = 59.8"] ;
735 -> 736 ;
737 [label="squared_error = 0.0\nsamples = 1\nvalue = 60.0"] ;
736 -> 737 ;
738 [label="squared_error = 0.0\nsamples = 1\nvalue = 59.0"] ;
736 -> 738 ;
739 [label="squared_error = 0.0\nsamples = 1\nvalue = 61.0"] ;
735 -> 739 ;
740 [label="squared_error = 0.0\nsamples = 1\nvalue = 63.0"] ;
734 -> 740 ;
741 [label="ws_1 <= 9.8\nsquared_error = 1.7\nsamples = 3\nvalue = 61.8"] ;
733 -> 741 ;
742 [label="squared_error = 0.0\nsamples = 1\nvalue = 63.0"] ;
741 -> 742 ;
743 [label="temp_1 <= 60.0\nsquared_error = 0.2\nsamples = 2\nvalue = 60.5"] ;
741 -> 743 ;
744 [label="squared_error = 0.0\nsamples = 1\nvalue = 61.0"] ;
743 -> 744 ;
745 [label="squared_error = 0.0\nsamples = 1\nvalue = 60.0"] ;
743 -> 745 ;
746 [label="squared_error = 0.0\nsamples = 1\nvalue = 57.0"] ;
730 -> 746 ;
747 [label="Thurs <= 0.5\nsquared_error = 0.2\nsamples = 2\nvalue = 56.5"] ;
729 -> 747 ;
748 [label="squared_error = 0.0\nsamples = 1\nvalue = 56.0"] ;
747 -> 748 ;
749 [label="squared_error = 0.0\nsamples = 1\nvalue = 57.0"] ;
747 -> 749 ;
750 [label="average <= 49.8\nsquared_error = 1.0\nsamples = 2\nvalue = 55.0"] ;
728 -> 750 ;
751 [label="squared_error = 0.0\nsamples = 1\nvalue = 56.0"] ;
750 -> 751 ;
752 [label="squared_error = 0.0\nsamples = 1\nvalue = 54.0"] ;
750 -> 752 ;
753 [label="fall <= 0.5\nsquared_error = 0.2\nsamples = 2\nvalue = 63.2"] ;
727 -> 753 ;
754 [label="squared_error = 0.0\nsamples = 1\nvalue = 63.0"] ;
753 -> 754 ;
755 [label="squared_error = 0.0\nsamples = 1\nvalue = 64.0"] ;
753 -> 755 ;
756 [label="temp_2 <= 57.5\nsquared_error = 13.3\nsamples = 15\nvalue = 56.4"] ;
726 -> 756 ;
757 [label="ws_1 <= 7.4\nsquared_error = 5.8\nsamples = 8\nvalue = 54.0"] ;
756 -> 757 ;
758 [label="Sat <= 0.5\nsquared_error = 0.2\nsamples = 2\nvalue = 50.5"] ;
757 -> 758 ;
759 [label="squared_error = 0.0\nsamples = 1\nvalue = 51.0"] ;
758 -> 759 ;
760 [label="squared_error = 0.0\nsamples = 1\nvalue = 50.0"] ;
758 -> 760 ;
761 [label="average <= 47.1\nsquared_error = 3.4\nsamples = 6\nvalue = 54.9"] ;
757 -> 761 ;
762 [label="temp_1 <= 59.0\nsquared_error = 0.9\nsamples = 2\nvalue = 52.7"] ;
761 -> 762 ;
763 [label="squared_error = 0.0\nsamples = 1\nvalue = 52.0"] ;
762 -> 763 ;
764 [label="squared_error = 0.0\nsamples = 1\nvalue = 54.0"] ;
762 -> 764 ;
765 [label="temp_2 <= 53.5\nsquared_error = 0.2\nsamples = 4\nvalue = 56.2"] ;
761 -> 765 ;
766 [label="squared_error = 0.0\nsamples = 1\nvalue = 57.0"] ;
765 -> 766 ;
767 [label="squared_error = 0.0\nsamples = 3\nvalue = 56.0"] ;
765 -> 767 ;
768 [label="average <= 47.0\nsquared_error = 7.9\nsamples = 7\nvalue = 59.1"] ;
756 -> 768 ;
769 [label="squared_error = 0.0\nsamples = 1\nvalue = 66.0"] ;
768 -> 769 ;
770 [label="average <= 52.2\nsquared_error = 2.2\nsamples = 6\nvalue = 58.2"] ;
768 -> 770 ;
771 [label="ws_1 <= 9.8\nsquared_error = 1.0\nsamples = 2\nvalue = 56.0"] ;
770 -> 771 ;
772 [label="squared_error = 0.0\nsamples = 1\nvalue = 57.0"] ;
771 -> 772 ;
773 [label="squared_error = 0.0\nsamples = 1\nvalue = 55.0"] ;
771 -> 773 ;
774 [label="temp_1 <= 59.5\nsquared_error = 0.3\nsamples = 4\nvalue = 59.0"] ;
770 -> 774 ;
775 [label="squared_error = 0.0\nsamples = 1\nvalue = 60.0"] ;
774 -> 775 ;
776 [label="average <= 53.7\nsquared_error = 0.2\nsamples = 3\nvalue = 58.8"] ;
774 -> 776 ;
777 [label="squared_error = 0.0\nsamples = 1\nvalue = 58.0"] ;
776 -> 777 ;
778 [label="squared_error = 0.0\nsamples = 2\nvalue = 59.0"] ;
776 -> 778 ;
779 [label="temp_1 <= 61.5\nsquared_error = 14.2\nsamples = 9\nvalue = 54.7"] ;
725 -> 779 ;
780 [label="prcp_1 <= 1.3\nsquared_error = 6.5\nsamples = 7\nvalue = 53.2"] ;
779 -> 780 ;
781 [label="average <= 52.6\nsquared_error = 2.4\nsamples = 6\nvalue = 52.5"] ;
780 -> 781 ;
782 [label="Tues <= 0.5\nsquared_error = 0.2\nsamples = 3\nvalue = 51.4"] ;
781 -> 782 ;
783 [label="squared_error = 0.0\nsamples = 2\nvalue = 51.0"] ;
782 -> 783 ;
784 [label="squared_error = 0.0\nsamples = 1\nvalue = 52.0"] ;
782 -> 784 ;
785 [label="prcp_1 <= 1.1\nsquared_error = 0.2\nsamples = 3\nvalue = 54.5"] ;
781 -> 785 ;
786 [label="squared_error = 0.0\nsamples = 2\nvalue = 55.0"] ;
785 -> 786 ;
787 [label="squared_error = 0.0\nsamples = 1\nvalue = 54.0"] ;
785 -> 787 ;
788 [label="squared_error = 0.0\nsamples = 1\nvalue = 60.0"] ;
780 -> 788 ;
789 [label="ws_1 <= 3.9\nsquared_error = 0.2\nsamples = 2\nvalue = 60.7"] ;
779 -> 789 ;
790 [label="squared_error = 0.0\nsamples = 1\nvalue = 61.0"] ;
789 -> 790 ;
791 [label="squared_error = 0.0\nsamples = 1\nvalue = 60.0"] ;
789 -> 791 ;
792 [label="temp_1 <= 59.5\nsquared_error = 22.0\nsamples = 62\nvalue = 60.3"] ;
724 -> 792 ;
793 [label="temp_2 <= 67.5\nsquared_error = 15.1\nsamples = 30\nvalue = 58.3"] ;
792 -> 793 ;
794 [label="average <= 55.2\nsquared_error = 13.2\nsamples = 29\nvalue = 58.8"] ;
793 -> 794 ;
795 [label="squared_error = 0.0\nsamples = 1\nvalue = 69.0"] ;
794 -> 795 ;
796 [label="temp_2 <= 56.0\nsquared_error = 11.0\nsamples = 28\nvalue = 58.5"] ;
794 -> 796 ;
797 [label="ws_1 <= 8.6\nsquared_error = 9.5\nsamples = 5\nvalue = 55.5"] ;
796 -> 797 ;
798 [label="spring <= 0.5\nsquared_error = 2.3\nsamples = 3\nvalue = 54.0"] ;
797 -> 798 ;
799 [label="squared_error = 0.0\nsamples = 1\nvalue = 55.0"] ;
798 -> 799 ;
800 [label="Wed <= 0.5\nsquared_error = 1.0\nsamples = 2\nvalue = 52.0"] ;
798 -> 800 ;
801 [label="squared_error = 0.0\nsamples = 1\nvalue = 53.0"] ;
800 -> 801 ;
802 [label="squared_error = 0.0\nsamples = 1\nvalue = 51.0"] ;
800 -> 802 ;
803 [label="ws_1 <= 10.1\nsquared_error = 4.0\nsamples = 2\nvalue = 60.0"] ;
797 -> 803 ;
804 [label="squared_error = 0.0\nsamples = 1\nvalue = 62.0"] ;
803 -> 804 ;
805 [label="squared_error = 0.0\nsamples = 1\nvalue = 58.0"] ;
803 -> 805 ;
806 [label="ws_1 <= 7.4\nsquared_error = 8.8\nsamples = 23\nvalue = 59.2"] ;
796 -> 806 ;
807 [label="Sat <= 0.5\nsquared_error = 6.3\nsamples = 13\nvalue = 60.4"] ;
806 -> 807 ;
808 [label="temp_2 <= 60.5\nsquared_error = 4.5\nsamples = 11\nvalue = 59.9"] ;
807 -> 808 ;
809 [label="temp_1 <= 58.5\nsquared_error = 2.9\nsamples = 8\nvalue = 59.3"] ;
808 -> 809 ;
810 [label="average <= 61.0\nsquared_error = 0.7\nsamples = 5\nvalue = 58.5"] ;
809 -> 810 ;
811 [label="Wed <= 0.5\nsquared_error = 0.1\nsamples = 4\nvalue = 58.9"] ;
810 -> 811 ;
812 [label="squared_error = 0.0\nsamples = 3\nvalue = 59.0"] ;
811 -> 812 ;
813 [label="squared_error = 0.0\nsamples = 1\nvalue = 58.0"] ;
811 -> 813 ;
814 [label="squared_error = 0.0\nsamples = 1\nvalue = 57.0"] ;
810 -> 814 ;
815 [label="fall <= 0.5\nsquared_error = 3.8\nsamples = 3\nvalue = 60.8"] ;
809 -> 815 ;
816 [label="squared_error = 0.0\nsamples = 1\nvalue = 63.0"] ;
815 -> 816 ;
817 [label="temp_2 <= 58.5\nsquared_error = 0.9\nsamples = 2\nvalue = 59.3"] ;
815 -> 817 ;
818 [label="squared_error = 0.0\nsamples = 1\nvalue = 60.0"] ;
817 -> 818 ;
819 [label="squared_error = 0.0\nsamples = 1\nvalue = 58.0"] ;
817 -> 819 ;
820 [label="ws_1 <= 5.8\nsquared_error = 3.7\nsamples = 3\nvalue = 62.2"] ;
808 -> 820 ;
821 [label="temp_1 <= 58.5\nsquared_error = 0.2\nsamples = 2\nvalue = 63.3"] ;
820 -> 821 ;
822 [label="squared_error = 0.0\nsamples = 1\nvalue = 64.0"] ;
821 -> 822 ;
823 [label="squared_error = 0.0\nsamples = 1\nvalue = 63.0"] ;
821 -> 823 ;
824 [label="squared_error = 0.0\nsamples = 1\nvalue = 59.0"] ;
820 -> 824 ;
825 [label="temp_2 <= 58.5\nsquared_error = 5.6\nsamples = 2\nvalue = 63.7"] ;
807 -> 825 ;
826 [label="squared_error = 0.0\nsamples = 1\nvalue = 62.0"] ;
825 -> 826 ;
827 [label="squared_error = 0.0\nsamples = 1\nvalue = 67.0"] ;
825 -> 827 ;
828 [label="temp_2 <= 58.5\nsquared_error = 6.6\nsamples = 10\nvalue = 57.2"] ;
806 -> 828 ;
829 [label="temp_2 <= 57.5\nsquared_error = 5.2\nsamples = 3\nvalue = 54.2"] ;
828 -> 829 ;
830 [label="prcp_1 <= 0.0\nsquared_error = 0.2\nsamples = 2\nvalue = 56.5"] ;
829 -> 830 ;
831 [label="squared_error = 0.0\nsamples = 1\nvalue = 56.0"] ;
830 -> 831 ;
832 [label="squared_error = 0.0\nsamples = 1\nvalue = 57.0"] ;
830 -> 832 ;
833 [label="squared_error = 0.0\nsamples = 1\nvalue = 52.0"] ;
829 -> 833 ;
834 [label="average <= 55.6\nsquared_error = 1.6\nsamples = 7\nvalue = 58.6"] ;
828 -> 834 ;
835 [label="squared_error = 0.0\nsamples = 1\nvalue = 62.0"] ;
834 -> 835 ;
836 [label="ws_1 <= 12.1\nsquared_error = 0.1\nsamples = 6\nvalue = 58.1"] ;
834 -> 836 ;
837 [label="squared_error = 0.0\nsamples = 5\nvalue = 58.0"] ;
836 -> 837 ;
838 [label="squared_error = 0.0\nsamples = 1\nvalue = 59.0"] ;
836 -> 838 ;
839 [label="squared_error = 0.0\nsamples = 1\nvalue = 52.0"] ;
793 -> 839 ;
840 [label="ws_1 <= 3.7\nsquared_error = 21.7\nsamples = 32\nvalue = 62.1"] ;
792 -> 840 ;
841 [label="temp_2 <= 65.5\nsquared_error = 0.2\nsamples = 3\nvalue = 54.7"] ;
840 -> 841 ;
842 [label="squared_error = 0.0\nsamples = 2\nvalue = 55.0"] ;
841 -> 842 ;
843 [label="squared_error = 0.0\nsamples = 1\nvalue = 54.0"] ;
841 -> 843 ;
844 [label="prcp_1 <= 0.2\nsquared_error = 19.2\nsamples = 29\nvalue = 62.6"] ;
840 -> 844 ;
845 [label="ws_1 <= 10.8\nsquared_error = 18.6\nsamples = 21\nvalue = 63.8"] ;
844 -> 845 ;
846 [label="Fri <= 0.5\nsquared_error = 17.5\nsamples = 19\nvalue = 64.3"] ;
845 -> 846 ;
847 [label="Tues <= 0.5\nsquared_error = 14.9\nsamples = 17\nvalue = 64.8"] ;
846 -> 847 ;
848 [label="average <= 57.1\nsquared_error = 15.0\nsamples = 13\nvalue = 65.7"] ;
847 -> 848 ;
849 [label="temp_1 <= 61.5\nsquared_error = 0.8\nsamples = 3\nvalue = 68.5"] ;
848 -> 849 ;
850 [label="squared_error = 0.0\nsamples = 1\nvalue = 70.0"] ;
849 -> 850 ;
851 [label="squared_error = 0.0\nsamples = 2\nvalue = 68.0"] ;
849 -> 851 ;
852 [label="average <= 60.3\nsquared_error = 16.1\nsamples = 10\nvalue = 65.0"] ;
848 -> 852 ;
853 [label="temp_2 <= 61.0\nsquared_error = 7.7\nsamples = 7\nvalue = 64.2"] ;
852 -> 853 ;
854 [label="ws_1 <= 6.2\nsquared_error = 0.9\nsamples = 4\nvalue = 62.2"] ;
853 -> 854 ;
855 [label="squared_error = 0.0\nsamples = 2\nvalue = 63.0"] ;
854 -> 855 ;
856 [label="squared_error = 0.0\nsamples = 2\nvalue = 61.0"] ;
854 -> 856 ;
857 [label="average <= 59.4\nsquared_error = 3.4\nsamples = 3\nvalue = 67.2"] ;
853 -> 857 ;
858 [label="average <= 58.4\nsquared_error = 1.0\nsamples = 2\nvalue = 68.0"] ;
857 -> 858 ;
859 [label="squared_error = 0.0\nsamples = 1\nvalue = 69.0"] ;
858 -> 859 ;
860 [label="squared_error = 0.0\nsamples = 1\nvalue = 67.0"] ;
858 -> 860 ;
861 [label="squared_error = 0.0\nsamples = 1\nvalue = 64.0"] ;
857 -> 861 ;
862 [label="average <= 60.9\nsquared_error = 36.2\nsamples = 3\nvalue = 68.7"] ;
852 -> 862 ;
863 [label="squared_error = 0.0\nsamples = 1\nvalue = 77.0"] ;
862 -> 863 ;
864 [label="fall <= 0.5\nsquared_error = 2.2\nsamples = 2\nvalue = 64.5"] ;
862 -> 864 ;
865 [label="squared_error = 0.0\nsamples = 1\nvalue = 63.0"] ;
864 -> 865 ;
866 [label="squared_error = 0.0\nsamples = 1\nvalue = 66.0"] ;
864 -> 866 ;
867 [label="temp_2 <= 64.0\nsquared_error = 5.3\nsamples = 4\nvalue = 62.1"] ;
847 -> 867 ;
868 [label="prcp_1 <= 0.0\nsquared_error = 1.0\nsamples = 3\nvalue = 63.0"] ;
867 -> 868 ;
869 [label="squared_error = 0.0\nsamples = 2\nvalue = 62.0"] ;
868 -> 869 ;
870 [label="squared_error = 0.0\nsamples = 1\nvalue = 64.0"] ;
868 -> 870 ;
871 [label="squared_error = 0.0\nsamples = 1\nvalue = 57.0"] ;
867 -> 871 ;
872 [label="ws_1 <= 5.9\nsquared_error = 9.0\nsamples = 2\nvalue = 58.0"] ;
846 -> 872 ;
873 [label="squared_error = 0.0\nsamples = 1\nvalue = 61.0"] ;
872 -> 873 ;
874 [label="squared_error = 0.0\nsamples = 1\nvalue = 55.0"] ;
872 -> 874 ;
875 [label="fall <= 0.5\nsquared_error = 0.9\nsamples = 2\nvalue = 58.7"] ;
845 -> 875 ;
876 [label="squared_error = 0.0\nsamples = 1\nvalue = 60.0"] ;
875 -> 876 ;
877 [label="squared_error = 0.0\nsamples = 1\nvalue = 58.0"] ;
875 -> 877 ;
878 [label="temp_2 <= 61.5\nsquared_error = 10.2\nsamples = 8\nvalue = 59.9"] ;
844 -> 878 ;
879 [label="spring <= 0.5\nsquared_error = 3.2\nsamples = 4\nvalue = 57.5"] ;
878 -> 879 ;
880 [label="average <= 58.6\nsquared_error = 1.0\nsamples = 3\nvalue = 58.2"] ;
879 -> 880 ;
881 [label="Thurs <= 0.5\nsquared_error = 0.2\nsamples = 2\nvalue = 57.8"] ;
880 -> 881 ;
882 [label="squared_error = 0.0\nsamples = 1\nvalue = 57.0"] ;
881 -> 882 ;
883 [label="squared_error = 0.0\nsamples = 1\nvalue = 58.0"] ;
881 -> 883 ;
884 [label="squared_error = 0.0\nsamples = 1\nvalue = 60.0"] ;
880 -> 884 ;
885 [label="squared_error = 0.0\nsamples = 1\nvalue = 54.0"] ;
879 -> 885 ;
886 [label="Thurs <= 0.5\nsquared_error = 7.7\nsamples = 4\nvalue = 61.8"] ;
878 -> 886 ;
887 [label="spring <= 0.5\nsquared_error = 0.2\nsamples = 3\nvalue = 60.7"] ;
886 -> 887 ;
888 [label="squared_error = 0.0\nsamples = 2\nvalue = 61.0"] ;
887 -> 888 ;
889 [label="squared_error = 0.0\nsamples = 1\nvalue = 60.0"] ;
887 -> 889 ;
890 [label="squared_error = 0.0\nsamples = 1\nvalue = 69.0"] ;
886 -> 890 ;
891 [label="prcp_1 <= 0.5\nsquared_error = 19.9\nsamples = 57\nvalue = 63.0"] ;
723 -> 891 ;
892 [label="average <= 68.5\nsquared_error = 14.1\nsamples = 51\nvalue = 64.1"] ;
891 -> 892 ;
893 [label="temp_1 <= 58.5\nsquared_error = 14.8\nsamples = 39\nvalue = 63.3"] ;
892 -> 893 ;
894 [label="spring <= 0.5\nsquared_error = 12.2\nsamples = 4\nvalue = 58.5"] ;
893 -> 894 ;
895 [label="squared_error = 0.0\nsamples = 2\nvalue = 55.0"] ;
894 -> 895 ;
896 [label="squared_error = 0.0\nsamples = 2\nvalue = 62.0"] ;
894 -> 896 ;
897 [label="average <= 66.5\nsquared_error = 13.1\nsamples = 35\nvalue = 63.7"] ;
893 -> 897 ;
898 [label="average <= 66.3\nsquared_error = 12.6\nsamples = 20\nvalue = 65.4"] ;
897 -> 898 ;
899 [label="temp_1 <= 62.5\nsquared_error = 9.7\nsamples = 19\nvalue = 64.8"] ;
898 -> 899 ;
900 [label="Tues <= 0.5\nsquared_error = 4.4\nsamples = 14\nvalue = 65.8"] ;
899 -> 900 ;
901 [label="temp_2 <= 66.5\nsquared_error = 2.7\nsamples = 11\nvalue = 65.2"] ;
900 -> 901 ;
902 [label="Sat <= 0.5\nsquared_error = 1.4\nsamples = 8\nvalue = 64.4"] ;
901 -> 902 ;
903 [label="ws_1 <= 5.1\nsquared_error = 0.8\nsamples = 7\nvalue = 64.1"] ;
902 -> 903 ;
904 [label="temp_1 <= 59.5\nsquared_error = 0.9\nsamples = 2\nvalue = 64.7"] ;
903 -> 904 ;
905 [label="squared_error = 0.0\nsamples = 1\nvalue = 64.0"] ;
904 -> 905 ;
906 [label="squared_error = 0.0\nsamples = 1\nvalue = 66.0"] ;
904 -> 906 ;
907 [label="Wed <= 0.5\nsquared_error = 0.5\nsamples = 5\nvalue = 63.8"] ;
903 -> 907 ;
908 [label="ws_1 <= 6.3\nsquared_error = 0.2\nsamples = 4\nvalue = 63.6"] ;
907 -> 908 ;
909 [label="squared_error = 0.0\nsamples = 2\nvalue = 64.0"] ;
908 -> 909 ;
910 [label="squared_error = 0.0\nsamples = 2\nvalue = 63.0"] ;
908 -> 910 ;
911 [label="squared_error = 0.0\nsamples = 1\nvalue = 65.0"] ;
907 -> 911 ;
912 [label="squared_error = 0.0\nsamples = 1\nvalue = 67.0"] ;
902 -> 912 ;
913 [label="average <= 63.5\nsquared_error = 0.2\nsamples = 3\nvalue = 67.2"] ;
901 -> 913 ;
914 [label="squared_error = 0.0\nsamples = 1\nvalue = 68.0"] ;
913 -> 914 ;
915 [label="squared_error = 0.0\nsamples = 2\nvalue = 67.0"] ;
913 -> 915 ;
916 [label="prcp_1 <= 0.1\nsquared_error = 5.4\nsamples = 3\nvalue = 67.4"] ;
900 -> 916 ;
917 [label="temp_2 <= 61.0\nsquared_error = 0.8\nsamples = 2\nvalue = 68.5"] ;
916 -> 917 ;
918 [label="squared_error = 0.0\nsamples = 1\nvalue = 69.0"] ;
917 -> 918 ;
919 [label="squared_error = 0.0\nsamples = 1\nvalue = 67.0"] ;
917 -> 919 ;
920 [label="squared_error = 0.0\nsamples = 1\nvalue = 63.0"] ;
916 -> 920 ;
921 [label="Wed <= 0.5\nsquared_error = 13.4\nsamples = 5\nvalue = 61.2"] ;
899 -> 921 ;
922 [label="average <= 65.4\nsquared_error = 4.7\nsamples = 4\nvalue = 62.8"] ;
921 -> 922 ;
923 [label="Mon <= 0.5\nsquared_error = 1.6\nsamples = 3\nvalue = 61.7"] ;
922 -> 923 ;
924 [label="prcp_1 <= 0.0\nsquared_error = 0.2\nsamples = 2\nvalue = 62.5"] ;
923 -> 924 ;
925 [label="squared_error = 0.0\nsamples = 1\nvalue = 62.0"] ;
924 -> 925 ;
926 [label="squared_error = 0.0\nsamples = 1\nvalue = 63.0"] ;
924 -> 926 ;
927 [label="squared_error = 0.0\nsamples = 1\nvalue = 60.0"] ;
923 -> 927 ;
928 [label="squared_error = 0.0\nsamples = 1\nvalue = 66.0"] ;
922 -> 928 ;
929 [label="squared_error = 0.0\nsamples = 1\nvalue = 55.0"] ;
921 -> 929 ;
930 [label="squared_error = 0.0\nsamples = 1\nvalue = 72.0"] ;
898 -> 930 ;
931 [label="ws_1 <= 5.4\nsquared_error = 7.4\nsamples = 15\nvalue = 61.9"] ;
897 -> 931 ;
932 [label="squared_error = 0.0\nsamples = 1\nvalue = 57.0"] ;
931 -> 932 ;
933 [label="temp_2 <= 58.5\nsquared_error = 5.8\nsamples = 14\nvalue = 62.3"] ;
931 -> 933 ;
934 [label="Thurs <= 0.5\nsquared_error = 1.4\nsamples = 3\nvalue = 59.6"] ;
933 -> 934 ;
935 [label="temp_2 <= 57.0\nsquared_error = 0.2\nsamples = 2\nvalue = 58.7"] ;
934 -> 935 ;
936 [label="squared_error = 0.0\nsamples = 1\nvalue = 58.0"] ;
935 -> 936 ;
937 [label="squared_error = 0.0\nsamples = 1\nvalue = 59.0"] ;
935 -> 937 ;
938 [label="squared_error = 0.0\nsamples = 1\nvalue = 61.0"] ;
934 -> 938 ;
939 [label="Fri <= 0.5\nsquared_error = 4.3\nsamples = 11\nvalue = 63.1"] ;
933 -> 939 ;
940 [label="Sat <= 0.5\nsquared_error = 2.1\nsamples = 8\nvalue = 62.4"] ;
939 -> 940 ;
941 [label="temp_2 <= 63.5\nsquared_error = 1.1\nsamples = 7\nvalue = 61.9"] ;
940 -> 941 ;
942 [label="squared_error = 0.0\nsamples = 2\nvalue = 61.0"] ;
941 -> 942 ;
943 [label="temp_1 <= 62.5\nsquared_error = 0.8\nsamples = 5\nvalue = 62.6"] ;
941 -> 943 ;
944 [label="average <= 67.4\nsquared_error = 0.2\nsamples = 3\nvalue = 63.2"] ;
943 -> 944 ;
945 [label="squared_error = 0.0\nsamples = 2\nvalue = 63.0"] ;
944 -> 945 ;
946 [label="squared_error = 0.0\nsamples = 1\nvalue = 64.0"] ;
944 -> 946 ;
947 [label="ws_1 <= 10.3\nsquared_error = 0.2\nsamples = 2\nvalue = 61.7"] ;
943 -> 947 ;
948 [label="squared_error = 0.0\nsamples = 1\nvalue = 62.0"] ;
947 -> 948 ;
949 [label="squared_error = 0.0\nsamples = 1\nvalue = 61.0"] ;
947 -> 949 ;
950 [label="squared_error = 0.0\nsamples = 1\nvalue = 65.0"] ;
940 -> 950 ;
951 [label="average <= 67.0\nsquared_error = 3.2\nsamples = 3\nvalue = 65.8"] ;
939 -> 951 ;
952 [label="squared_error = 0.0\nsamples = 1\nvalue = 64.0"] ;
951 -> 952 ;
953 [label="ws_1 <= 11.3\nsquared_error = 0.2\nsamples = 2\nvalue = 67.5"] ;
951 -> 953 ;
954 [label="squared_error = 0.0\nsamples = 1\nvalue = 68.0"] ;
953 -> 954 ;
955 [label="squared_error = 0.0\nsamples = 1\nvalue = 67.0"] ;
953 -> 955 ;
956 [label="temp_2 <= 68.5\nsquared_error = 3.9\nsamples = 12\nvalue = 66.5"] ;
892 -> 956 ;
957 [label="average <= 70.5\nsquared_error = 2.1\nsamples = 9\nvalue = 67.3"] ;
956 -> 957 ;
958 [label="average <= 68.6\nsquared_error = 1.1\nsamples = 6\nvalue = 66.7"] ;
957 -> 958 ;
959 [label="squared_error = 0.0\nsamples = 1\nvalue = 69.0"] ;
958 -> 959 ;
960 [label="temp_2 <= 67.5\nsquared_error = 0.5\nsamples = 5\nvalue = 66.4"] ;
958 -> 960 ;
961 [label="temp_2 <= 65.5\nsquared_error = 0.2\nsamples = 4\nvalue = 66.6"] ;
960 -> 961 ;
962 [label="squared_error = 0.0\nsamples = 2\nvalue = 66.0"] ;
961 -> 962 ;
963 [label="squared_error = 0.0\nsamples = 2\nvalue = 67.0"] ;
961 -> 963 ;
964 [label="squared_error = 0.0\nsamples = 1\nvalue = 65.0"] ;
960 -> 964 ;
965 [label="ws_1 <= 6.3\nsquared_error = 1.2\nsamples = 3\nvalue = 68.8"] ;
957 -> 965 ;
966 [label="squared_error = 0.0\nsamples = 1\nvalue = 67.0"] ;
965 -> 966 ;
967 [label="prcp_1 <= 0.1\nsquared_error = 0.2\nsamples = 2\nvalue = 69.3"] ;
965 -> 967 ;
968 [label="squared_error = 0.0\nsamples = 1\nvalue = 70.0"] ;
967 -> 968 ;
969 [label="squared_error = 0.0\nsamples = 1\nvalue = 69.0"] ;
967 -> 969 ;
970 [label="prcp_1 <= 0.3\nsquared_error = 0.2\nsamples = 3\nvalue = 63.8"] ;
956 -> 970 ;
971 [label="squared_error = 0.0\nsamples = 2\nvalue = 64.0"] ;
970 -> 971 ;
972 [label="squared_error = 0.0\nsamples = 1\nvalue = 63.0"] ;
970 -> 972 ;
973 [label="prcp_1 <= 0.6\nsquared_error = 15.7\nsamples = 6\nvalue = 57.6"] ;
891 -> 973 ;
974 [label="prcp_1 <= 0.5\nsquared_error = 1.7\nsamples = 2\nvalue = 52.8"] ;
973 -> 974 ;
975 [label="squared_error = 0.0\nsamples = 1\nvalue = 52.0"] ;
974 -> 975 ;
976 [label="squared_error = 0.0\nsamples = 1\nvalue = 55.0"] ;
974 -> 976 ;
977 [label="temp_2 <= 64.5\nsquared_error = 7.8\nsamples = 4\nvalue = 59.6"] ;
973 -> 977 ;
978 [label="Fri <= 0.5\nsquared_error = 0.7\nsamples = 3\nvalue = 58.2"] ;
977 -> 978 ;
979 [label="Sun <= 0.5\nsquared_error = 0.2\nsamples = 2\nvalue = 57.5"] ;
978 -> 979 ;
980 [label="squared_error = 0.0\nsamples = 1\nvalue = 57.0"] ;
979 -> 980 ;
981 [label="squared_error = 0.0\nsamples = 1\nvalue = 58.0"] ;
979 -> 981 ;
982 [label="squared_error = 0.0\nsamples = 1\nvalue = 59.0"] ;
978 -> 982 ;
983 [label="squared_error = 0.0\nsamples = 1\nvalue = 65.0"] ;
977 -> 983 ;
984 [label="temp_1 <= 74.5\nsquared_error = 73.6\nsamples = 435\nvalue = 74.0"] ;
0 -> 984 [labeldistance=2.5, labelangle=-45, headlabel="False"] ;
985 [label="summer <= 0.5\nsquared_error = 34.0\nsamples = 226\nvalue = 68.7"] ;
984 -> 985 ;
986 [label="temp_1 <= 67.5\nsquared_error = 26.6\nsamples = 135\nvalue = 66.4"] ;
985 -> 986 ;
987 [label="average <= 58.5\nsquared_error = 20.1\nsamples = 65\nvalue = 64.6"] ;
986 -> 987 ;
988 [label="Mon <= 0.5\nsquared_error = 6.7\nsamples = 10\nvalue = 58.8"] ;
987 -> 988 ;
989 [label="average <= 54.1\nsquared_error = 2.8\nsamples = 8\nvalue = 59.8"] ;
988 -> 989 ;
990 [label="temp_2 <= 56.5\nsquared_error = 2.9\nsamples = 3\nvalue = 61.3"] ;
989 -> 990 ;
991 [label="squared_error = 0.0\nsamples = 1\nvalue = 59.0"] ;
990 -> 991 ;
992 [label="fall <= 0.5\nsquared_error = 0.2\nsamples = 2\nvalue = 62.5"] ;
990 -> 992 ;
993 [label="squared_error = 0.0\nsamples = 1\nvalue = 63.0"] ;
992 -> 993 ;
994 [label="squared_error = 0.0\nsamples = 1\nvalue = 62.0"] ;
992 -> 994 ;
995 [label="temp_2 <= 56.5\nsquared_error = 1.0\nsamples = 5\nvalue = 59.0"] ;
989 -> 995 ;
996 [label="squared_error = 0.0\nsamples = 1\nvalue = 57.0"] ;
995 -> 996 ;
997 [label="average <= 57.0\nsquared_error = 0.2\nsamples = 4\nvalue = 59.4"] ;
995 -> 997 ;
998 [label="squared_error = 0.0\nsamples = 2\nvalue = 60.0"] ;
997 -> 998 ;
999 [label="squared_error = 0.0\nsamples = 2\nvalue = 59.0"] ;
997 -> 999 ;
1000 [label="average <= 54.8\nsquared_error = 5.6\nsamples = 2\nvalue = 55.7"] ;
988 -> 1000 ;
1001 [label="squared_error = 0.0\nsamples = 1\nvalue = 59.0"] ;
1000 -> 1001 ;
1002 [label="squared_error = 0.0\nsamples = 1\nvalue = 54.0"] ;
1000 -> 1002 ;
1003 [label="temp_2 <= 56.5\nsquared_error = 16.9\nsamples = 55\nvalue = 65.3"] ;
987 -> 1003 ;
1004 [label="average <= 64.1\nsquared_error = 20.2\nsamples = 2\nvalue = 70.5"] ;
1003 -> 1004 ;
1005 [label="squared_error = 0.0\nsamples = 1\nvalue = 75.0"] ;
1004 -> 1005 ;
1006 [label="squared_error = 0.0\nsamples = 1\nvalue = 66.0"] ;
1004 -> 1006 ;
1007 [label="average <= 67.0\nsquared_error = 15.4\nsamples = 53\nvalue = 65.1"] ;
1003 -> 1007 ;
1008 [label="ws_1 <= 3.4\nsquared_error = 17.4\nsamples = 30\nvalue = 64.3"] ;
1007 -> 1008 ;
1009 [label="prcp_1 <= 0.0\nsquared_error = 10.2\nsamples = 4\nvalue = 68.2"] ;
1008 -> 1009 ;
1010 [label="average <= 62.3\nsquared_error = 0.8\nsamples = 3\nvalue = 69.2"] ;
1009 -> 1010 ;
1011 [label="squared_error = 0.0\nsamples = 1\nvalue = 67.0"] ;
1010 -> 1011 ;
1012 [label="temp_1 <= 65.5\nsquared_error = 0.2\nsamples = 2\nvalue = 69.5"] ;
1010 -> 1012 ;
1013 [label="squared_error = 0.0\nsamples = 1\nvalue = 70.0"] ;
1012 -> 1013 ;
1014 [label="squared_error = 0.0\nsamples = 1\nvalue = 69.0"] ;
1012 -> 1014 ;
1015 [label="squared_error = 0.0\nsamples = 1\nvalue = 59.0"] ;
1009 -> 1015 ;
1016 [label="ws_1 <= 4.0\nsquared_error = 14.8\nsamples = 26\nvalue = 63.4"] ;
1008 -> 1016 ;
1017 [label="average <= 61.9\nsquared_error = 0.9\nsamples = 2\nvalue = 58.3"] ;
1016 -> 1017 ;
1018 [label="squared_error = 0.0\nsamples = 1\nvalue = 59.0"] ;
1017 -> 1018 ;
1019 [label="squared_error = 0.0\nsamples = 1\nvalue = 57.0"] ;
1017 -> 1019 ;
1020 [label="Thurs <= 0.5\nsquared_error = 13.8\nsamples = 24\nvalue = 63.7"] ;
1016 -> 1020 ;
1021 [label="temp_2 <= 66.5\nsquared_error = 8.2\nsamples = 21\nvalue = 63.1"] ;
1020 -> 1021 ;
1022 [label="average <= 66.3\nsquared_error = 5.2\nsamples = 12\nvalue = 64.0"] ;
1021 -> 1022 ;
1023 [label="ws_1 <= 5.6\nsquared_error = 1.2\nsamples = 8\nvalue = 65.2"] ;
1022 -> 1023 ;
1024 [label="squared_error = 0.0\nsamples = 1\nvalue = 63.0"] ;
1023 -> 1024 ;
1025 [label="Mon <= 0.5\nsquared_error = 0.8\nsamples = 7\nvalue = 65.5"] ;
1023 -> 1025 ;
1026 [label="fall <= 0.5\nsquared_error = 0.2\nsamples = 6\nvalue = 65.7"] ;
1025 -> 1026 ;
1027 [label="squared_error = 0.0\nsamples = 4\nvalue = 66.0"] ;
1026 -> 1027 ;
1028 [label="squared_error = 0.0\nsamples = 2\nvalue = 65.0"] ;
1026 -> 1028 ;
1029 [label="squared_error = 0.0\nsamples = 1\nvalue = 63.0"] ;
1025 -> 1029 ;
1030 [label="ws_1 <= 6.4\nsquared_error = 6.2\nsamples = 4\nvalue = 62.6"] ;
1022 -> 1030 ;
1031 [label="ws_1 <= 5.3\nsquared_error = 0.2\nsamples = 2\nvalue = 64.4"] ;
1030 -> 1031 ;
1032 [label="squared_error = 0.0\nsamples = 1\nvalue = 65.0"] ;
1031 -> 1032 ;
1033 [label="squared_error = 0.0\nsamples = 1\nvalue = 64.0"] ;
1031 -> 1033 ;
1034 [label="temp_1 <= 64.5\nsquared_error = 5.8\nsamples = 2\nvalue = 60.8"] ;
1030 -> 1034 ;
1035 [label="squared_error = 0.0\nsamples = 1\nvalue = 62.0"] ;
1034 -> 1035 ;
1036 [label="squared_error = 0.0\nsamples = 1\nvalue = 56.0"] ;
1034 -> 1036 ;
1037 [label="prcp_1 <= 0.0\nsquared_error = 9.4\nsamples = 9\nvalue = 61.7"] ;
1021 -> 1037 ;
1038 [label="Wed <= 0.5\nsquared_error = 5.5\nsamples = 7\nvalue = 60.4"] ;
1037 -> 1038 ;
1039 [label="ws_1 <= 4.9\nsquared_error = 2.6\nsamples = 6\nvalue = 59.8"] ;
1038 -> 1039 ;
1040 [label="squared_error = 0.0\nsamples = 1\nvalue = 62.0"] ;
1039 -> 1040 ;
1041 [label="temp_1 <= 66.0\nsquared_error = 0.7\nsamples = 5\nvalue = 58.9"] ;
1039 -> 1041 ;
1042 [label="Fri <= 0.5\nsquared_error = 0.1\nsamples = 4\nvalue = 59.2"] ;
1041 -> 1042 ;
1043 [label="squared_error = 0.0\nsamples = 3\nvalue = 59.0"] ;
1042 -> 1043 ;
1044 [label="squared_error = 0.0\nsamples = 1\nvalue = 60.0"] ;
1042 -> 1044 ;
1045 [label="squared_error = 0.0\nsamples = 1\nvalue = 57.0"] ;
1041 -> 1045 ;
1046 [label="squared_error = 0.0\nsamples = 1\nvalue = 66.0"] ;
1038 -> 1046 ;
1047 [label="prcp_1 <= 0.1\nsquared_error = 0.8\nsamples = 2\nvalue = 65.5"] ;
1037 -> 1047 ;
1048 [label="squared_error = 0.0\nsamples = 1\nvalue = 67.0"] ;
1047 -> 1048 ;
1049 [label="squared_error = 0.0\nsamples = 1\nvalue = 65.0"] ;
1047 -> 1049 ;
1050 [label="temp_2 <= 72.5\nsquared_error = 30.6\nsamples = 3\nvalue = 68.4"] ;
1020 -> 1050 ;
1051 [label="temp_1 <= 66.0\nsquared_error = 4.0\nsamples = 2\nvalue = 75.0"] ;
1050 -> 1051 ;
1052 [label="squared_error = 0.0\nsamples = 1\nvalue = 77.0"] ;
1051 -> 1052 ;
1053 [label="squared_error = 0.0\nsamples = 1\nvalue = 73.0"] ;
1051 -> 1053 ;
1054 [label="squared_error = 0.0\nsamples = 1\nvalue = 64.0"] ;
1050 -> 1054 ;
1055 [label="temp_2 <= 74.5\nsquared_error = 8.9\nsamples = 23\nvalue = 66.5"] ;
1007 -> 1055 ;
1056 [label="average <= 67.1\nsquared_error = 6.3\nsamples = 21\nvalue = 67.1"] ;
1055 -> 1056 ;
1057 [label="temp_2 <= 64.0\nsquared_error = 2.0\nsamples = 2\nvalue = 71.0"] ;
1056 -> 1057 ;
1058 [label="squared_error = 0.0\nsamples = 1\nvalue = 72.0"] ;
1057 -> 1058 ;
1059 [label="squared_error = 0.0\nsamples = 1\nvalue = 69.0"] ;
1057 -> 1059 ;
1060 [label="prcp_1 <= 0.0\nsquared_error = 4.9\nsamples = 19\nvalue = 66.6"] ;
1056 -> 1060 ;
1061 [label="Wed <= 0.5\nsquared_error = 3.6\nsamples = 12\nvalue = 65.7"] ;
1060 -> 1061 ;
1062 [label="average <= 70.8\nsquared_error = 0.8\nsamples = 7\nvalue = 64.7"] ;
1061 -> 1062 ;
1063 [label="temp_2 <= 67.5\nsquared_error = 0.2\nsamples = 3\nvalue = 63.8"] ;
1062 -> 1063 ;
1064 [label="squared_error = 0.0\nsamples = 2\nvalue = 64.0"] ;
1063 -> 1064 ;
1065 [label="squared_error = 0.0\nsamples = 1\nvalue = 63.0"] ;
1063 -> 1065 ;
1066 [label="ws_1 <= 10.7\nsquared_error = 0.4\nsamples = 4\nvalue = 65.2"] ;
1062 -> 1066 ;
1067 [label="squared_error = 0.0\nsamples = 3\nvalue = 65.0"] ;
1066 -> 1067 ;
1068 [label="squared_error = 0.0\nsamples = 1\nvalue = 67.0"] ;
1066 -> 1068 ;
1069 [label="temp_2 <= 70.5\nsquared_error = 1.0\nsamples = 5\nvalue = 68.4"] ;
1061 -> 1069 ;
1070 [label="ws_1 <= 4.1\nsquared_error = 0.5\nsamples = 4\nvalue = 68.0"] ;
1069 -> 1070 ;
1071 [label="squared_error = 0.0\nsamples = 1\nvalue = 67.0"] ;
1070 -> 1071 ;
1072 [label="average <= 68.7\nsquared_error = 0.2\nsamples = 3\nvalue = 68.3"] ;
1070 -> 1072 ;
1073 [label="squared_error = 0.0\nsamples = 1\nvalue = 69.0"] ;
1072 -> 1073 ;
1074 [label="squared_error = 0.0\nsamples = 2\nvalue = 68.0"] ;
1072 -> 1074 ;
1075 [label="squared_error = 0.0\nsamples = 1\nvalue = 70.0"] ;
1069 -> 1075 ;
1076 [label="ws_1 <= 8.4\nsquared_error = 1.7\nsamples = 7\nvalue = 68.6"] ;
1060 -> 1076 ;
1077 [label="Thurs <= 0.5\nsquared_error = 0.7\nsamples = 4\nvalue = 69.8"] ;
1076 -> 1077 ;
1078 [label="squared_error = 0.0\nsamples = 2\nvalue = 69.0"] ;
1077 -> 1078 ;
1079 [label="average <= 70.2\nsquared_error = 0.2\nsamples = 2\nvalue = 70.5"] ;
1077 -> 1079 ;
1080 [label="squared_error = 0.0\nsamples = 1\nvalue = 71.0"] ;
1079 -> 1080 ;
1081 [label="squared_error = 0.0\nsamples = 1\nvalue = 70.0"] ;
1079 -> 1081 ;
1082 [label="Sun <= 0.5\nsquared_error = 0.2\nsamples = 3\nvalue = 67.5"] ;
1076 -> 1082 ;
1083 [label="squared_error = 0.0\nsamples = 2\nvalue = 67.0"] ;
1082 -> 1083 ;
1084 [label="squared_error = 0.0\nsamples = 1\nvalue = 68.0"] ;
1082 -> 1084 ;
1085 [label="squared_error = 0.0\nsamples = 2\nvalue = 61.0"] ;
1055 -> 1085 ;
1086 [label="temp_2 <= 60.5\nsquared_error = 26.5\nsamples = 70\nvalue = 68.2"] ;
986 -> 1086 ;
1087 [label="temp_2 <= 58.0\nsquared_error = 0.7\nsamples = 3\nvalue = 77.2"] ;
1086 -> 1087 ;
1088 [label="squared_error = 0.0\nsamples = 1\nvalue = 78.0"] ;
1087 -> 1088 ;
1089 [label="average <= 64.7\nsquared_error = 0.2\nsamples = 2\nvalue = 76.5"] ;
1087 -> 1089 ;
1090 [label="squared_error = 0.0\nsamples = 1\nvalue = 77.0"] ;
1089 -> 1090 ;
1091 [label="squared_error = 0.0\nsamples = 1\nvalue = 76.0"] ;
1089 -> 1091 ;
1092 [label="average <= 65.0\nsquared_error = 24.1\nsamples = 67\nvalue = 67.8"] ;
1086 -> 1092 ;
1093 [label="ws_1 <= 7.9\nsquared_error = 22.2\nsamples = 28\nvalue = 65.9"] ;
1092 -> 1093 ;
1094 [label="ws_1 <= 3.8\nsquared_error = 18.1\nsamples = 21\nvalue = 64.7"] ;
1093 -> 1094 ;
1095 [label="temp_2 <= 68.5\nsquared_error = 6.2\nsamples = 5\nvalue = 68.7"] ;
1094 -> 1095 ;
1096 [label="Sat <= 0.5\nsquared_error = 1.0\nsamples = 2\nvalue = 72.0"] ;
1095 -> 1096 ;
1097 [label="squared_error = 0.0\nsamples = 1\nvalue = 73.0"] ;
1096 -> 1097 ;
1098 [label="squared_error = 0.0\nsamples = 1\nvalue = 71.0"] ;
1096 -> 1098 ;
1099 [label="Fri <= 0.5\nsquared_error = 2.2\nsamples = 3\nvalue = 67.4"] ;
1095 -> 1099 ;
1100 [label="temp_1 <= 71.0\nsquared_error = 0.9\nsamples = 2\nvalue = 66.3"] ;
1099 -> 1100 ;
1101 [label="squared_error = 0.0\nsamples = 1\nvalue = 67.0"] ;
1100 -> 1101 ;
1102 [label="squared_error = 0.0\nsamples = 1\nvalue = 65.0"] ;
1100 -> 1102 ;
1103 [label="squared_error = 0.0\nsamples = 1\nvalue = 69.0"] ;
1099 -> 1103 ;
1104 [label="Thurs <= 0.5\nsquared_error = 15.7\nsamples = 16\nvalue = 63.6"] ;
1094 -> 1104 ;
1105 [label="temp_1 <= 73.5\nsquared_error = 6.5\nsamples = 13\nvalue = 62.2"] ;
1104 -> 1105 ;
1106 [label="temp_1 <= 68.5\nsquared_error = 2.4\nsamples = 11\nvalue = 61.6"] ;
1105 -> 1106 ;
1107 [label="temp_2 <= 66.5\nsquared_error = 0.9\nsamples = 2\nvalue = 59.3"] ;
1106 -> 1107 ;
1108 [label="squared_error = 0.0\nsamples = 1\nvalue = 60.0"] ;
1107 -> 1108 ;
1109 [label="squared_error = 0.0\nsamples = 1\nvalue = 58.0"] ;
1107 -> 1109 ;
1110 [label="ws_1 <= 6.2\nsquared_error = 1.5\nsamples = 9\nvalue = 62.0"] ;
1106 -> 1110 ;
1111 [label="temp_2 <= 72.5\nsquared_error = 0.7\nsamples = 4\nvalue = 62.9"] ;
1110 -> 1111 ;
1112 [label="spring <= 0.5\nsquared_error = 0.1\nsamples = 3\nvalue = 63.2"] ;
1111 -> 1112 ;
1113 [label="squared_error = 0.0\nsamples = 1\nvalue = 64.0"] ;
1112 -> 1113 ;
1114 [label="squared_error = 0.0\nsamples = 2\nvalue = 63.0"] ;
1112 -> 1114 ;
1115 [label="squared_error = 0.0\nsamples = 1\nvalue = 61.0"] ;
1111 -> 1115 ;
1116 [label="temp_2 <= 84.0\nsquared_error = 0.9\nsamples = 5\nvalue = 61.2"] ;
1110 -> 1116 ;
1117 [label="ws_1 <= 6.8\nsquared_error = 0.6\nsamples = 4\nvalue = 61.7"] ;
1116 -> 1117 ;
1118 [label="squared_error = 0.0\nsamples = 1\nvalue = 63.0"] ;
1117 -> 1118 ;
1119 [label="ws_1 <= 7.3\nsquared_error = 0.2\nsamples = 3\nvalue = 61.4"] ;
1117 -> 1119 ;
1120 [label="squared_error = 0.0\nsamples = 1\nvalue = 61.0"] ;
1119 -> 1120 ;
1121 [label="squared_error = 0.0\nsamples = 2\nvalue = 62.0"] ;
1119 -> 1121 ;
1122 [label="squared_error = 0.0\nsamples = 1\nvalue = 60.0"] ;
1116 -> 1122 ;
1123 [label="average <= 62.4\nsquared_error = 12.2\nsamples = 2\nvalue = 67.5"] ;
1105 -> 1123 ;
1124 [label="squared_error = 0.0\nsamples = 1\nvalue = 71.0"] ;
1123 -> 1124 ;
1125 [label="squared_error = 0.0\nsamples = 1\nvalue = 64.0"] ;
1123 -> 1125 ;
1126 [label="spring <= 0.5\nsquared_error = 10.2\nsamples = 3\nvalue = 69.4"] ;
1104 -> 1126 ;
1127 [label="squared_error = 0.0\nsamples = 1\nvalue = 63.0"] ;
1126 -> 1127 ;
1128 [label="squared_error = 0.0\nsamples = 2\nvalue = 71.0"] ;
1126 -> 1128 ;
1129 [label="prcp_1 <= 0.1\nsquared_error = 18.2\nsamples = 7\nvalue = 69.4"] ;
1093 -> 1129 ;
1130 [label="temp_2 <= 65.5\nsquared_error = 7.0\nsamples = 5\nvalue = 72.1"] ;
1129 -> 1130 ;
1131 [label="ws_1 <= 9.1\nsquared_error = 1.7\nsamples = 2\nvalue = 70.2"] ;
1130 -> 1131 ;
1132 [label="squared_error = 0.0\nsamples = 1\nvalue = 71.0"] ;
1131 -> 1132 ;
1133 [label="squared_error = 0.0\nsamples = 1\nvalue = 68.0"] ;
1131 -> 1133 ;
1134 [label="Sat <= 0.5\nsquared_error = 2.9\nsamples = 3\nvalue = 74.7"] ;
1130 -> 1134 ;
1135 [label="temp_1 <= 71.5\nsquared_error = 0.2\nsamples = 2\nvalue = 73.5"] ;
1134 -> 1135 ;
1136 [label="squared_error = 0.0\nsamples = 1\nvalue = 73.0"] ;
1135 -> 1136 ;
1137 [label="squared_error = 0.0\nsamples = 1\nvalue = 74.0"] ;
1135 -> 1137 ;
1138 [label="squared_error = 0.0\nsamples = 1\nvalue = 77.0"] ;
1134 -> 1138 ;
1139 [label="Mon <= 0.5\nsquared_error = 0.8\nsamples = 2\nvalue = 64.5"] ;
1129 -> 1139 ;
1140 [label="squared_error = 0.0\nsamples = 1\nvalue = 64.0"] ;
1139 -> 1140 ;
1141 [label="squared_error = 0.0\nsamples = 1\nvalue = 66.0"] ;
1139 -> 1141 ;
1142 [label="prcp_1 <= 0.0\nsquared_error = 20.2\nsamples = 39\nvalue = 69.4"] ;
1092 -> 1142 ;
1143 [label="temp_1 <= 71.5\nsquared_error = 18.8\nsamples = 29\nvalue = 70.5"] ;
1142 -> 1143 ;
1144 [label="Thurs <= 0.5\nsquared_error = 16.2\nsamples = 23\nvalue = 69.7"] ;
1143 -> 1144 ;
1145 [label="ws_1 <= 4.5\nsquared_error = 16.4\nsamples = 20\nvalue = 69.1"] ;
1144 -> 1145 ;
1146 [label="Sat <= 0.5\nsquared_error = 30.2\nsamples = 2\nvalue = 59.5"] ;
1145 -> 1146 ;
1147 [label="squared_error = 0.0\nsamples = 1\nvalue = 65.0"] ;
1146 -> 1147 ;
1148 [label="squared_error = 0.0\nsamples = 1\nvalue = 54.0"] ;
1146 -> 1148 ;
1149 [label="temp_1 <= 68.5\nsquared_error = 7.7\nsamples = 18\nvalue = 69.8"] ;
1145 -> 1149 ;
1150 [label="Tues <= 0.5\nsquared_error = 4.4\nsamples = 7\nvalue = 68.0"] ;
1149 -> 1150 ;
1151 [label="temp_2 <= 65.5\nsquared_error = 3.0\nsamples = 6\nvalue = 68.4"] ;
1150 -> 1151 ;
1152 [label="squared_error = 0.0\nsamples = 1\nvalue = 66.0"] ;
1151 -> 1152 ;
1153 [label="average <= 65.3\nsquared_error = 2.0\nsamples = 5\nvalue = 69.0"] ;
1151 -> 1153 ;
1154 [label="squared_error = 0.0\nsamples = 2\nvalue = 68.0"] ;
1153 -> 1154 ;
1155 [label="average <= 68.7\nsquared_error = 0.9\nsamples = 3\nvalue = 70.7"] ;
1153 -> 1155 ;
1156 [label="squared_error = 0.0\nsamples = 2\nvalue = 70.0"] ;
1155 -> 1156 ;
1157 [label="squared_error = 0.0\nsamples = 1\nvalue = 72.0"] ;
1155 -> 1157 ;
1158 [label="squared_error = 0.0\nsamples = 1\nvalue = 64.0"] ;
1150 -> 1158 ;
1159 [label="ws_1 <= 4.9\nsquared_error = 5.8\nsamples = 11\nvalue = 71.2"] ;
1149 -> 1159 ;
1160 [label="average <= 73.8\nsquared_error = 9.0\nsamples = 2\nvalue = 67.0"] ;
1159 -> 1160 ;
1161 [label="squared_error = 0.0\nsamples = 1\nvalue = 64.0"] ;
1160 -> 1161 ;
1162 [label="squared_error = 0.0\nsamples = 1\nvalue = 70.0"] ;
1160 -> 1162 ;
1163 [label="spring <= 0.5\nsquared_error = 2.1\nsamples = 9\nvalue = 71.8"] ;
1159 -> 1163 ;
1164 [label="temp_1 <= 69.5\nsquared_error = 1.5\nsamples = 7\nvalue = 71.5"] ;
1163 -> 1164 ;
1165 [label="squared_error = 0.0\nsamples = 2\nvalue = 70.0"] ;
1164 -> 1165 ;
1166 [label="Tues <= 0.5\nsquared_error = 1.0\nsamples = 5\nvalue = 72.0"] ;
1164 -> 1166 ;
1167 [label="Wed <= 0.5\nsquared_error = 0.6\nsamples = 3\nvalue = 72.6"] ;
1166 -> 1167 ;
1168 [label="Sun <= 0.5\nsquared_error = 0.2\nsamples = 2\nvalue = 73.5"] ;
1167 -> 1168 ;
1169 [label="squared_error = 0.0\nsamples = 1\nvalue = 74.0"] ;
1168 -> 1169 ;
1170 [label="squared_error = 0.0\nsamples = 1\nvalue = 73.0"] ;
1168 -> 1170 ;
1171 [label="squared_error = 0.0\nsamples = 1\nvalue = 72.0"] ;
1167 -> 1171 ;
1172 [label="squared_error = 0.0\nsamples = 2\nvalue = 71.0"] ;
1166 -> 1172 ;
1173 [label="squared_error = 0.0\nsamples = 2\nvalue = 74.0"] ;
1163 -> 1173 ;
1174 [label="spring <= 0.5\nsquared_error = 2.4\nsamples = 3\nvalue = 73.0"] ;
1144 -> 1174 ;
1175 [label="ws_1 <= 4.5\nsquared_error = 0.2\nsamples = 2\nvalue = 72.2"] ;
1174 -> 1175 ;
1176 [label="squared_error = 0.0\nsamples = 1\nvalue = 72.0"] ;
1175 -> 1176 ;
1177 [label="squared_error = 0.0\nsamples = 1\nvalue = 73.0"] ;
1175 -> 1177 ;
1178 [label="squared_error = 0.0\nsamples = 1\nvalue = 76.0"] ;
1174 -> 1178 ;
1179 [label="average <= 73.5\nsquared_error = 13.3\nsamples = 6\nvalue = 74.3"] ;
1143 -> 1179 ;
1180 [label="Sun <= 0.5\nsquared_error = 5.0\nsamples = 4\nvalue = 76.2"] ;
1179 -> 1180 ;
1181 [label="temp_2 <= 74.5\nsquared_error = 1.7\nsamples = 3\nvalue = 75.2"] ;
1180 -> 1181 ;
1182 [label="temp_1 <= 72.5\nsquared_error = 0.2\nsamples = 2\nvalue = 76.5"] ;
1181 -> 1182 ;
1183 [label="squared_error = 0.0\nsamples = 1\nvalue = 76.0"] ;
1182 -> 1183 ;
1184 [label="squared_error = 0.0\nsamples = 1\nvalue = 77.0"] ;
1182 -> 1184 ;
1185 [label="squared_error = 0.0\nsamples = 1\nvalue = 74.0"] ;
1181 -> 1185 ;
1186 [label="squared_error = 0.0\nsamples = 1\nvalue = 80.0"] ;
1180 -> 1186 ;
1187 [label="temp_2 <= 71.5\nsquared_error = 2.2\nsamples = 2\nvalue = 69.5"] ;
1179 -> 1187 ;
1188 [label="squared_error = 0.0\nsamples = 1\nvalue = 68.0"] ;
1187 -> 1188 ;
